{"learner":{"attributes":{"scikit_learn":"{\"_estimator_type\": \"regressor\"}"},"feature_names":[],"feature_types":[],"gradient_booster":{"model":{"gbtree_model_param":{"num_parallel_tree":"1","num_trees":"300"},"iteration_indptr":[0,3,6,9,12,15,18,21,24,27,30,33,36,39,42,45,48,51,54,57,60,63,66,69,72,75,78,81,84,87,90,93,96,99,102,105,108,111,114,117,120,123,126,129,132,135,138,141,144,147,150,153,156,159,162,165,168,171,174,177,180,183,186,189,192,195,198,201,204,207,210,213,216,219,222,225,228,231,234,237,240,243,246,249,252,255,258,261,264,267,270,273,276,279,282,285,288,291,294,297,300],"tree_info":[0,1,2,0,1,2,0,1,2,0,1,2,0,1,2,0,1,2,0,1,2,0,1,2,0,1,2,0,1,2,0,1,2,0,1,2,0,1,2,0,1,2,0,1,2,0,1,2,0,1,2,0,1,2,0,1,2,0,1,2,0,1,2,0,1,2,0,1,2,0,1,2,0,1,2,0,1,2,0,1,2,0,1,2,0,1,2,0,1,2,0,1,2,0,1,2,0,1,2,0,1,2,0,1,2,0,1,2,0,1,2,0,1,2,0,1,2,0,1,2,0,1,2,0,1,2,0,1,2,0,1,2,0,1,2,0,1,2,0,1,2,0,1,2,0,1,2,0,1,2,0,1,2,0,1,2,0,1,2,0,1,2,0,1,2,0,1,2,0,1,2,0,1,2,0,1,2,0,1,2,0,1,2,0,1,2,0,1,2,0,1,2,0,1,2,0,1,2,0,1,2,0,1,2,0,1,2,0,1,2,0,1,2,0,1,2,0,1,2,0,1,2,0,1,2,0,1,2,0,1,2,0,1,2,0,1,2,0,1,2,0,1,2,0,1,2,0,1,2,0,1,2,0,1,2,0,1,2,0,1,2,0,1,2,0,1,2,0,1,2,0,1,2,0,1,2,0,1,2,0,1,2,0,1,2,0,1,2,0,1,2,0,1,2,0,1,2,0,1,2],"trees":[{"base_weights":[-3.5760573E-3,-1.3498518E-1,1.1008266E-1,-2.5928003E-1,-8.279686E-2,6.104078E-2,2.2422867E-1,-3.463896E-2,-2.2665923E-2,-1.2828059E-2,-5.00695E-3,2.6463668E-3,1.0379989E-2,1.783814E-2,2.952377E-2],"categories":[],"categories_nodes":[],"categories_segments":[],"categories_sizes":[],"default_left":[0,0,0,0,0,0,0,0,0,0,0,0,0,0,0],"id":0,"left_children":[1,3,5,7,9,11,13,-1,-1,-1,-1,-1,-1,-1,-1],"loss_changes":[7.835309E1,1.5760769E1,1.5733307E1,1.9645844E0,2.546461E0,2.9083934E0,2.6982918E0,0E0,0E0,0E0,0E0,0E0,0E0,0E0,0E0],"parents":[2147483647,0,0,1,1,2,2,3,3,4,4,5,5,6,6],"right_children":[2,4,6,8,10,12,14,-1,-1,-1,-1,-1,-1,-1,-1],"split_conditions":[4.207404E-1,2.5741822E-1,5.8412594E-1,1.3722779E-1,3.448288E-1,5.066872E-1,6.7506045E-1,-3.463896E-2,-2.2665923E-2,-1.2828059E-2,-5.00695E-3,2.6463668E-3,1.0379989E-2,1.783814E-2,2.952377E-2],"split_indices":[8,8,8,8,8,8,8,0,0,0,0,0,0,0,0],"split_type":[0,0,0,0,0,0,0,0,0,0,0,0,0,0,0],"sum_hessian":[5.244E3,2.432E3,2.812E3,7.18E2,1.714E3,1.968E3,8.44E2,1.93E2,5.25E2,7.16E2,9.98E2,1.089E3,8.79E2,5.15E2,3.29E2],"tree_param":{"num_deleted":"0","num_feature":"10","num_nodes":"15","size_leaf_vector":"1"}},{"base_weights":[1.952223E-3,-1.2297781E-1,1.1209428E-1,-2.3010239E-1,-6.466464E-2,6.826239E-2,2.2854461E-1,-3.0391235E-2,-1.8902266E-2,-1.0957322E-2,-3.960355E-3,2.7305146E-3,1.0160509E-2,1.9363591E-2,3.0945515E-2],"categories":[],"categories_nodes":[],"categories_segments":[],"categories_sizes":[],"default_left":[0,0,0,0,0,0,0,0,0,0,0,0,0,0,0],"id":1,"left_children":[1,3,5,7,9,11,13,-1,-1,-1,-1,-1,-1,-1,-1],"loss_changes":[7.218524E1,1.5339695E1,1.4215015E1,2.568348E0,1.7885146E0,2.7653484E0,2.092331E0,0E0,0E0,0E0,0E0,0E0,0E0,0E0,0E0],"parents":[2147483647,0,0,1,1,2,2,3,3,4,4,5,5,6,6],"right_children":[2,4,6,8,10,12,14,-1,-1,-1,-1,-1,-1,-1,-1],"split_conditions":[4.2223933E-1,2.8501156E-1,6.0169107E-1,1.7575713E-1,3.448288E-1,4.9613124E-1,7.019043E-1,-3.0391235E-2,-1.8902266E-2,-1.0957322E-2,-3.960355E-3,2.7305146E-3,1.0160509E-2,1.9363591E-2,3.0945515E-2],"split_indices":[8,8,8,8,8,8,8,0,0,0,0,0,0,0,0],"split_type":[0,0,0,0,0,0,0,0,0,0,0,0,0,0,0],"sum_hessian":[5.244E3,2.457E3,2.787E3,8.65E2,1.592E3,2.026E3,7.61E2,3.07E2,5.58E2,5.69E2,1.023E3,9.1E2,1.116E3,5.34E2,2.27E2],"tree_param":{"num_deleted":"0","num_feature":"10","num_nodes":"15","size_leaf_vector":"1"}},{"base_weights":[1.6237992E-3,-1.3070501E-1,9.961859E-2,-2.411779E-1,-7.815501E-2,5.2530374E-2,2.0394057E-1,-3.2718316E-2,-2.0899883E-2,-1.1629093E-2,-4.3792087E-3,1.8989778E-3,9.295832E-3,1.571313E-2,2.689041E-2],"categories":[],"categories_nodes":[],"categories_segments":[],"categories_sizes":[],"default_left":[0,0,0,0,0,0,0,0,0,0,0,0,0,0,0],"id":2,"left_children":[1,3,5,7,9,11,13,-1,-1,-1,-1,-1,-1,-1,-1],"loss_changes":[6.802774E1,1.2938694E1,1.4795065E1,1.9215012E0,1.9789467E0,2.8159552E0,2.807064E0,0E0,0E0,0E0,0E0,0E0,0E0,0E0,0E0],"parents":[2147483647,0,0,1,1,2,2,3,3,4,4,5,5,6,6],"right_children":[2,4,6,8,10,12,14,-1,-1,-1,-1,-1,-1,-1,-1],"split_conditions":[4.1007885E-1,2.5741822E-1,5.805791E-1,1.3722779E-1,3.448288E-1,4.9613124E-1,6.5992314E-1,-3.2718316E-2,-2.0899883E-2,-1.1629093E-2,-4.3792087E-3,1.8989778E-3,9.295832E-3,1.571313E-2,2.689041E-2],"split_indices":[8,8,8,8,8,8,8,0,0,0,0,0,0,0,0],"split_type":[0,0,0,0,0,0,0,0,0,0,0,0,0,0,0],"sum_hessian":[5.244E3,2.231E3,3.013E3,7.18E2,1.513E3,2.077E3,9.36E2,1.93E2,5.25E2,7.16E2,7.97E2,1.136E3,9.41E2,5.46E2,3.9E2],"tree_param":{"num_deleted":"0","num_feature":"10","num_nodes":"15","size_leaf_vector":"1"}},{"base_weights":[-3.2212674E-3,-1.21517554E-1,9.909586E-2,-2.192529E-1,-6.7461215E-2,5.142326E-2,1.9448794E-1,-2.8795687E-2,-1.810059E-2,-9.81673E-3,-3.8457762E-3,1.5975194E-3,8.296417E-3,1.4900426E-2,2.5762115E-2],"categories":[],"categories_nodes":[],"categories_segments":[],"categories_sizes":[],"default_left":[0,0,0,0,0,0,0,0,0,0,0,0,0,0,0],"id":3,"left_children":[1,3,5,7,9,11,13,-1,-1,-1,-1,-1,-1,-1,-1],"loss_changes":[6.349614E1,1.2839272E1,1.2782364E1,2.223484E0,1.3926578E0,2.0972805E0,2.652237E0,0E0,0E0,0E0,0E0,0E0,0E0,0E0,0E0],"parents":[2147483647,0,0,1,1,2,2,3,3,4,4,5,5,6,6],"right_children":[2,4,6,8,10,12,14,-1,-1,-1,-1,-1,-1,-1,-1],"split_conditions":[4.207404E-1,2.8501156E-1,5.805791E-1,1.7575713E-1,3.5890344E-1,4.913177E-1,6.5992314E-1,-2.8795687E-2,-1.810059E-2,-9.81673E-3,-3.8457762E-3,1.5975194E-3,8.296417E-3,1.4900426E-2,2.5762115E-2],"split_indices":[8,8,8,8,8,8,8,0,0,0,0,0,0,0,0],"split_type":[0,0,0,0,0,0,0,0,0,0,0,0,0,0,0],"sum_hessian":[5.244E3,2.432E3,2.812E3,8.65E2,1.567E3,1.876E3,9.36E2,3.07E2,5.58E2,7.6E2,8.07E2,8.84E2,9.92E2,5.46E2,3.9E2],"tree_param":{"num_deleted":"0","num_feature":"10","num_nodes":"15","size_leaf_vector":"1"}},{"base_weights":[1.7568087E-3,-1.2217389E-1,9.21811E-2,-2.2142832E-1,-7.43571E-2,3.9017554E-2,1.744848E-1,-3.0145278E-2,-1.9149264E-2,-1.0656365E-2,-4.4618384E-3,1.6481702E-3,7.362012E-3,1.3606987E-2,2.5263691E-2],"categories":[],"categories_nodes":[],"categories_segments":[],"categories_sizes":[],"default_left":[0,0,0,0,0,0,0,0,0,0,0,0,0,0,0],"id":4,"left_children":[1,3,5,7,9,11,13,-1,-1,-1,-1,-1,-1,-1,-1],"loss_changes":[5.8788548E1,1.0486496E1,1.3264259E1,1.6647034E0,1.4271297E0,1.4367344E0,3.53825E0,0E0,0E0,0E0,0E0,0E0,0E0,0E0,0E0],"parents":[2147483647,0,0,1,1,2,2,3,3,4,4,5,5,6,6],"right_children":[2,4,6,8,10,12,14,-1,-1,-1,-1,-1,-1,-1,-1],"split_conditions":[4.0408304E-1,2.5741822E-1,5.518827E-1,1.3722779E-1,3.448288E-1,4.9222553E-1,6.5992314E-1,-3.0145278E-2,-1.9149264E-2,-1.0656365E-2,-4.4618384E-3,1.6481702E-3,7.362012E-3,1.3606987E-2,2.5263691E-2],"split_indices":[8,8,8,8,8,8,8,0,0,0,0,0,0,0,0],"split_type":[0,0,0,0,0,0,0,0,0,0,0,0,0,0,0],"sum_hessian":[5.244E3,2.212E3,3.032E3,7.18E2,1.494E3,1.843E3,1.189E3,1.93E2,5.25E2,7.16E2,7.78E2,1.117E3,7.26E2,7.99E2,3.9E2],"tree_param":{"num_deleted":"0","num_feature":"10","num_nodes":"15","size_leaf_vector":"1"}},{"base_weights":[1.4584081E-3,-1.167266E-1,9.0422444E-2,-2.0788531E-1,-6.441814E-2,5.3448886E-2,1.9860427E-1,-2.7197016E-2,-1.6907984E-2,-9.837425E-3,-3.88413E-3,1.7732362E-3,8.908559E-3,1.7345307E-2,2.864993E-2],"categories":[],"categories_nodes":[],"categories_segments":[],"categories_sizes":[],"default_left":[0,0,0,0,0,0,0,0,0,0,0,0,0,0,0],"id":5,"left_children":[1,3,5,7,9,11,13,-1,-1,-1,-1,-1,-1,-1,-1],"loss_changes":[5.5157616E1,1.072975E1,1.1960987E1,1.9957123E0,1.2407241E0,2.839353E0,1.6348324E0,0E0,0E0,0E0,0E0,0E0,0E0,0E0,0E0],"parents":[2147483647,0,0,1,1,2,2,3,3,4,4,5,5,6,6],"right_children":[2,4,6,8,10,12,14,-1,-1,-1,-1,-1,-1,-1,-1],"split_conditions":[4.1053277E-1,2.709369E-1,6.0169107E-1,1.7575713E-1,3.448288E-1,4.9613124E-1,7.2836286E-1,-2.7197016E-2,-1.6907984E-2,-9.837425E-3,-3.88413E-3,1.7732362E-3,8.908559E-3,1.7345307E-2,2.864993E-2],"split_indices":[8,8,8,8,8,8,8,0,0,0,0,0,0,0,0],"split_type":[0,0,0,0,0,0,0,0,0,0,0,0,0,0,0],"sum_hessian":[5.244E3,2.252E3,2.992E3,8.2E2,1.432E3,2.231E3,7.61E2,3.07E2,5.13E2,6.14E2,8.18E2,1.115E3,1.116E3,5.94E2,1.67E2],"tree_param":{"num_deleted":"0","num_feature":"10","num_nodes":"15","size_leaf_vector":"1"}},{"base_weights":[-2.901048E-3,-1.1898989E-1,8.1803046E-2,-2.2097573E-1,-7.880101E-2,2.9846082E-2,1.5773214E-1,-2.8328193E-2,-1.924841E-2,-1.2182873E-2,-5.6783273E-3,3.0499944E-4,5.6050546E-3,1.2309189E-2,2.3192491E-2],"categories":[],"categories_nodes":[],"categories_segments":[],"categories_sizes":[],"default_left":[0,0,0,0,0,0,0,0,0,0,0,0,0,0,0],"id":6,"left_children":[1,3,5,7,9,11,13,-1,-1,-1,-1,-1,-1,-1,-1],"loss_changes":[5.158487E1,9.053003E0,1.1960613E1,1.0549736E0,1.4984579E0,1.2651521E0,3.137762E0,0E0,0E0,0E0,0E0,0E0,0E0,0E0,0E0],"parents":[2147483647,0,0,1,1,2,2,3,3,4,4,5,5,6,6],"right_children":[2,4,6,8,10,12,14,-1,-1,-1,-1,-1,-1,-1,-1],"split_conditions":[4.0408304E-1,2.4278763E-1,5.45871E-1,1.3722779E-1,3.1866404E-1,4.7501928E-1,6.5992314E-1,-2.8328193E-2,-1.924841E-2,-1.2182873E-2,-5.6783273E-3,3.0499944E-4,5.6050546E-3,1.2309189E-2,2.3192491E-2],"split_indices":[8,8,8,8,8,8,8,0,0,0,0,0,0,0,0],"split_type":[0,0,0,0,0,0,0,0,0,0,0,0,0,0,0],"sum_hessian":[5.244E3,2.212E3,3.032E3,6.24E2,1.588E3,1.801E3,1.231E3,1.93E2,4.31E2,5.36E2,1.052E3,8.91E2,9.1E2,8.41E2,3.9E2],"tree_param":{"num_deleted":"0","num_feature":"10","num_nodes":"15","size_leaf_vector":"1"}},{"base_weights":[1.5779752E-3,-1.0998561E-1,8.2978785E-2,-1.9935404E-1,-6.693151E-2,4.5673896E-2,1.795201E-1,-2.714629E-2,-1.7237978E-2,-9.702715E-3,-4.101472E-3,1.4835019E-3,7.779348E-3,1.5639897E-2,2.717618E-2],"categories":[],"categories_nodes":[],"categories_segments":[],"categories_sizes":[],"default_left":[0,0,0,0,0,0,0,0,0,0,0,0,0,0,0],"id":7,"left_children":[1,3,5,7,9,11,13,-1,-1,-1,-1,-1,-1,-1,-1],"loss_changes":[4.7640892E1,8.501568E0,1.0915039E1,1.3517189E0,1.1620941E0,2.16712E0,1.7596569E0,0E0,0E0,0E0,0E0,0E0,0E0,0E0,0E0],"parents":[2147483647,0,0,1,1,2,2,3,3,4,4,5,5,6,6],"right_children":[2,4,6,8,10,12,14,-1,-1,-1,-1,-1,-1,-1,-1],"split_conditions":[4.0408304E-1,2.5741822E-1,5.8412594E-1,1.3722779E-1,3.4374505E-1,4.9222553E-1,7.2836286E-1,-2.714629E-2,-1.7237978E-2,-9.702715E-3,-4.101472E-3,1.4835019E-3,7.779348E-3,1.5639897E-2,2.717618E-2],"split_indices":[8,8,8,8,8,8,8,0,0,0,0,0,0,0,0],"split_type":[0,0,0,0,0,0,0,0,0,0,0,0,0,0,0],"sum_hessian":[5.244E3,2.212E3,3.032E3,7.18E2,1.494E3,2.188E3,8.44E2,1.93E2,5.25E2,6.9E2,8.04E2,1.117E3,1.071E3,6.77E2,1.67E2],"tree_param":{"num_deleted":"0","num_feature":"10","num_nodes":"15","size_leaf_vector":"1"}},{"base_weights":[1.3123456E-3,-9.716038E-2,8.812893E-2,-1.871505E-1,-5.1996127E-2,5.399835E-2,1.788042E-1,-2.5663812E-2,-1.5749285E-2,-8.855282E-3,-2.9989912E-3,2.8900371E-3,8.76125E-3,1.3507287E-2,2.1995319E-2],"categories":[],"categories_nodes":[],"categories_segments":[],"categories_sizes":[],"default_left":[0,0,0,0,0,0,0,0,0,0,0,0,0,0,0],"id":8,"left_children":[1,3,5,7,9,11,13,-1,-1,-1,-1,-1,-1,-1,-1],"loss_changes":[4.484841E1,9.98041E0,8.61865E0,1.6515312E0,1.3150735E0,1.707541E0,1.341507E0,0E0,0E0,0E0,0E0,0E0,0E0,0E0,0E0],"parents":[2147483647,0,0,1,1,2,2,3,3,4,4,5,5,6,6],"right_children":[2,4,6,8,10,12,14,-1,-1,-1,-1,-1,-1,-1,-1],"split_conditions":[4.2223933E-1,2.709369E-1,6.0169107E-1,1.5833975E-1,3.448288E-1,5.172432E-1,6.5992314E-1,-2.5663812E-2,-1.5749285E-2,-8.855282E-3,-2.9989912E-3,2.8900371E-3,8.76125E-3,1.3507287E-2,2.1995319E-2],"split_indices":[8,8,8,8,8,8,8,0,0,0,0,0,0,0,0],"split_type":[0,0,0,0,0,0,0,0,0,0,0,0,0,0,0],"sum_hessian":[5.244E3,2.457E3,2.787E3,8.2E2,1.637E3,2.026E3,7.61E2,2.43E2,5.77E2,6.14E2,1.023E3,1.161E3,8.65E2,3.71E2,3.9E2],"tree_param":{"num_deleted":"0","num_feature":"10","num_nodes":"15","size_leaf_vector":"1"}},{"base_weights":[-2.6155233E-3,-9.526215E-2,8.355566E-2,-1.7809832E-1,-5.2068293E-2,4.9443997E-2,1.71053E-1,-2.4520135E-2,-1.5153132E-2,-8.017113E-3,-2.8327068E-3,2.382449E-3,8.169234E-3,1.4622963E-2,2.5795097E-2],"categories":[],"categories_nodes":[],"categories_segments":[],"categories_sizes":[],"default_left":[0,0,0,0,0,0,0,0,0,0,0,0,0,0,0],"id":9,"left_children":[1,3,5,7,9,11,13,-1,-1,-1,-1,-1,-1,-1,-1],"loss_changes":[4.1881256E1,9.035946E0,8.103905E0,1.5066853E0,1.1072755E0,1.6149011E0,1.6059895E0,0E0,0E0,0E0,0E0,0E0,0E0,0E0,0E0],"parents":[2147483647,0,0,1,1,2,2,3,3,4,4,5,5,6,6],"right_children":[2,4,6,8,10,12,14,-1,-1,-1,-1,-1,-1,-1,-1],"split_conditions":[4.3110636E-1,2.8501156E-1,6.0169107E-1,1.5833975E-1,3.5890344E-1,5.172432E-1,7.2836286E-1,-2.4520135E-2,-1.5153132E-2,-8.017113E-3,-2.8327068E-3,2.382449E-3,8.169234E-3,1.4622963E-2,2.5795097E-2],"split_indices":[8,8,8,8,8,8,8,0,0,0,0,0,0,0,0],"split_type":[0,0,0,0,0,0,0,0,0,0,0,0,0,0,0],"sum_hessian":[5.244E3,2.527E3,2.717E3,8.65E2,1.662E3,1.956E3,7.61E2,2.43E2,6.22E2,7.6E2,9.02E2,1.091E3,8.65E2,5.94E2,1.67E2],"tree_param":{"num_deleted":"0","num_feature":"10","num_nodes":"15","size_leaf_vector":"1"}},{"base_weights":[1.4190124E-3,-8.775113E-2,8.435525E-2,-1.6886573E-1,-4.545829E-2,5.5632953E-2,1.7965773E-1,-2.2425152E-2,-1.38046965E-2,-7.2304145E-3,-2.27837E-3,3.4023826E-3,9.500903E-3,1.6367005E-2,2.814388E-2],"categories":[],"categories_nodes":[],"categories_segments":[],"categories_sizes":[],"default_left":[0,0,0,0,0,0,0,0,0,0,0,0,0,0,0],"id":10,"left_children":[1,3,5,7,9,11,13,-1,-1,-1,-1,-1,-1,-1,-1],"loss_changes":[3.8796463E1,8.664795E0,7.430006E0,1.4472389E0,1.0106521E0,1.7751122E0,9.774704E-1,0E0,0E0,0E0,0E0,0E0,0E0,0E0,0E0],"parents":[2147483647,0,0,1,1,2,2,3,3,4,4,5,5,6,6],"right_children":[2,4,6,8,10,12,14,-1,-1,-1,-1,-1,-1,-1,-1],"split_conditions":[4.3110636E-1,2.8501156E-1,6.2280303E-1,1.7575713E-1,3.5890344E-1,5.383552E-1,7.705868E-1,-2.2425152E-2,-1.38046965E-2,-7.2304145E-3,-2.27837E-3,3.4023826E-3,9.500903E-3,1.6367005E-2,2.814388E-2],"split_indices":[8,8,8,8,8,8,8,0,0,0,0,0,0,0,0],"split_type":[0,0,0,0,0,0,0,0,0,0,0,0,0,0,0],"sum_hessian":[5.244E3,2.527E3,2.717E3,8.65E2,1.662E3,2.089E3,6.28E2,3.07E2,5.58E2,7.6E2,9.02E2,1.35E3,7.39E2,5.45E2,8.3E1],"tree_param":{"num_deleted":"0","num_feature":"10","num_nodes":"15","size_leaf_vector":"1"}},{"base_weights":[1.1799404E-3,-1.0651146E-1,6.567626E-2,-1.971669E-1,-7.4683994E-2,2.4119385E-2,1.363202E-1,-2.6071731E-2,-1.7359352E-2,-1.0596331E-2,-4.925692E-3,-6.69271E-5,4.8598824E-3,1.0691578E-2,1.9801416E-2],"categories":[],"categories_nodes":[],"categories_segments":[],"categories_sizes":[],"default_left":[0,0,0,0,0,0,0,0,0,0,0,0,0,0,0],"id":11,"left_children":[1,3,5,7,9,11,13,-1,-1,-1,-1,-1,-1,-1,-1],"loss_changes":[3.6437187E1,5.654955E0,9.6288805E0,7.18771E-1,1.1527987E0,1.2543137E0,2.18293E0,0E0,0E0,0E0,0E0,0E0,0E0,0E0,0E0],"parents":[2147483647,0,0,1,1,2,2,3,3,4,4,5,5,6,6],"right_children":[2,4,6,8,10,12,14,-1,-1,-1,-1,-1,-1,-1,-1],"split_conditions":[3.9036027E-1,2.1658768E-1,5.4891115E-1,1.1611582E-1,3.1866404E-1,4.593753E-1,6.5992314E-1,-2.6071731E-2,-1.7359352E-2,-1.0596331E-2,-4.925692E-3,-6.69271E-5,4.8598824E-3,1.0691578E-2,1.9801416E-2],"split_indices":[8,8,8,8,8,8,8,0,0,0,0,0,0,0,0],"split_type":[0,0,0,0,0,0,0,0,0,0,0,0,0,0,0],"sum_hessian":[5.244E3,1.964E3,3.28E3,5.09E2,1.455E3,2.066E3,1.214E3,1.35E2,3.74E2,6.51E2,8.04E2,1.027E3,1.039E3,8.24E2,3.9E2],"tree_param":{"num_deleted":"0","num_feature":"10","num_nodes":"15","size_leaf_vector":"1"}},{"base_weights":[-2.3538854E-3,-9.906259E-2,6.491163E-2,-1.801835E-1,-6.581675E-2,2.409218E-2,1.3020249E-1,-2.4677237E-2,-1.6133398E-2,-9.26383E-3,-4.373835E-3,5.310719E-4,5.238095E-3,1.0957773E-2,2.1674389E-2],"categories":[],"categories_nodes":[],"categories_segments":[],"categories_sizes":[],"default_left":[0,0,0,0,0,0,0,0,0,0,0,0,0,0,0],"id":12,"left_children":[1,3,5,7,9,11,13,-1,-1,-1,-1,-1,-1,-1,-1],"loss_changes":[3.4125996E1,5.7919407E0,8.242796E0,7.4466705E-1,9.007945E-1,1.0118567E0,2.1002731E0,0E0,0E0,0E0,0E0,0E0,0E0,0E0,0E0],"parents":[2147483647,0,0,1,1,2,2,3,3,4,4,5,5,6,6],"right_children":[2,4,6,8,10,12,14,-1,-1,-1,-1,-1,-1,-1,-1],"split_conditions":[3.991182E-1,2.4278763E-1,5.518827E-1,1.1611582E-1,3.2875556E-1,4.881087E-1,7.019043E-1,-2.4677237E-2,-1.6133398E-2,-9.26383E-3,-4.373835E-3,5.310719E-4,5.238095E-3,1.0957773E-2,2.1674389E-2],"split_indices":[8,8,8,8,8,8,8,0,0,0,0,0,0,0,0],"split_type":[0,0,0,0,0,0,0,0,0,0,0,0,0,0,0],"sum_hessian":[5.244E3,2.151E3,3.093E3,6.24E2,1.527E3,1.904E3,1.189E3,1.35E2,4.89E2,6.88E2,8.39E2,1.145E3,7.59E2,9.62E2,2.27E2],"tree_param":{"num_deleted":"0","num_feature":"10","num_nodes":"15","size_leaf_vector":"1"}},{"base_weights":[1.2793363E-3,-8.122475E-2,7.401741E-2,-1.5262139E-1,-4.2979963E-2,4.4806845E-2,1.5162344E-1,-2.404852E-2,-1.3585947E-2,-7.1714832E-3,-2.6690438E-3,2.2898838E-3,7.4151303E-3,1.3131141E-2,2.2265946E-2],"categories":[],"categories_nodes":[],"categories_segments":[],"categories_sizes":[],"default_left":[0,0,0,0,0,0,0,0,0,0,0,0,0,0,0],"id":13,"left_children":[1,3,5,7,9,11,13,-1,-1,-1,-1,-1,-1,-1,-1],"loss_changes":[3.1482243E1,6.7051277E0,6.313368E0,1.2294903E0,7.47946E-1,1.3014164E0,1.0702438E0,0E0,0E0,0E0,0E0,0E0,0E0,0E0,0E0],"parents":[2147483647,0,0,1,1,2,2,3,3,4,4,5,5,6,6],"right_children":[2,4,6,8,10,12,14,-1,-1,-1,-1,-1,-1,-1,-1],"split_conditions":[4.2223933E-1,2.8298482E-1,6.0169107E-1,1.1611582E-1,3.448288E-1,5.172432E-1,7.2836286E-1,-2.404852E-2,-1.3585947E-2,-7.1714832E-3,-2.6690438E-3,2.2898838E-3,7.4151303E-3,1.3131141E-2,2.2265946E-2],"split_indices":[8,8,8,8,8,8,8,0,0,0,0,0,0,0,0],"split_type":[0,0,0,0,0,0,0,0,0,0,0,0,0,0,0],"sum_hessian":[5.244E3,2.457E3,2.787E3,8.56E2,1.601E3,2.026E3,7.61E2,1.35E2,7.21E2,5.78E2,1.023E3,1.161E3,8.65E2,5.94E2,1.67E2],"tree_param":{"num_deleted":"0","num_feature":"10","num_nodes":"15","size_leaf_vector":"1"}},{"base_weights":[1.0574317E-3,-7.896172E-2,7.160479E-2,-1.5977365E-1,-4.5523375E-2,4.703239E-2,1.5587312E-1,-2.3483727E-2,-1.4201948E-2,-7.7227526E-3,-2.530793E-3,2.839172E-3,8.2763955E-3,1.4270625E-2,2.6602825E-2],"categories":[],"categories_nodes":[],"categories_segments":[],"categories_sizes":[],"default_left":[0,0,0,0,0,0,0,0,0,0,0,0,0,0,0],"id":14,"left_children":[1,3,5,7,9,11,13,-1,-1,-1,-1,-1,-1,-1,-1],"loss_changes":[2.9614412E1,6.634776E0,5.765712E0,9.248543E-1,1.113235E0,1.4363399E0,8.7433434E-1,0E0,0E0,0E0,0E0,0E0,0E0,0E0,0E0],"parents":[2147483647,0,0,1,1,2,2,3,3,4,4,5,5,6,6],"right_children":[2,4,6,8,10,12,14,-1,-1,-1,-1,-1,-1,-1,-1],"split_conditions":[4.2223933E-1,2.5741822E-1,6.2280303E-1,1.1611582E-1,3.4106383E-1,5.383552E-1,7.811428E-1,-2.3483727E-2,-1.4201948E-2,-7.7227526E-3,-2.530793E-3,2.839172E-3,8.2763955E-3,1.4270625E-2,2.6602825E-2],"split_indices":[8,8,8,8,8,8,8,0,0,0,0,0,0,0,0],"split_type":[0,0,0,0,0,0,0,0,0,0,0,0,0,0,0],"sum_hessian":[5.244E3,2.457E3,2.787E3,7.18E2,1.739E3,2.159E3,6.28E2,1.35E2,5.83E2,6.76E2,1.063E3,1.42E3,7.39E2,5.63E2,6.5E1],"tree_param":{"num_deleted":"0","num_feature":"10","num_nodes":"15","size_leaf_vector":"1"}},{"base_weights":[-2.1215512E-3,-7.3711574E-2,7.163029E-2,-1.3991283E-1,-3.6592588E-2,4.6370048E-2,1.5006816E-1,-1.7525882E-2,-1.0205619E-2,-5.3853425E-3,-1.156389E-3,2.7621065E-3,7.714186E-3,1.3638848E-2,2.6469344E-2],"categories":[],"categories_nodes":[],"categories_segments":[],"categories_sizes":[],"default_left":[0,0,0,0,0,0,0,0,0,0,0,0,0,0,0],"id":15,"left_children":[1,3,5,7,9,11,13,-1,-1,-1,-1,-1,-1,-1,-1],"loss_changes":[2.769834E1,6.536275E0,5.112877E0,1.2613201E0,7.3682904E-1,1.1263642E0,9.501934E-1,0E0,0E0,0E0,0E0,0E0,0E0,0E0,0E0],"parents":[2147483647,0,0,1,1,2,2,3,3,4,4,5,5,6,6],"right_children":[2,4,6,8,10,12,14,-1,-1,-1,-1,-1,-1,-1,-1],"split_conditions":[4.375244E-1,2.917674E-1,6.2280303E-1,2.1016963E-1,3.9036027E-1,5.383552E-1,7.811428E-1,-1.7525882E-2,-1.0205619E-2,-5.3853425E-3,-1.156389E-3,2.7621065E-3,7.714186E-3,1.3638848E-2,2.6469344E-2],"split_indices":[8,8,8,8,8,8,8,0,0,0,0,0,0,0,0],"split_type":[0,0,0,0,0,0,0,0,0,0,0,0,0,0,0],"sum_hessian":[5.244E3,2.661E3,2.583E3,9.55E2,1.706E3,1.955E3,6.28E2,4.92E2,4.63E2,1.009E3,6.97E2,1.216E3,7.39E2,5.63E2,6.5E1],"tree_param":{"num_deleted":"0","num_feature":"10","num_nodes":"15","size_leaf_vector":"1"}},{"base_weights":[1.1509489E-3,-8.914735E-2,5.52305E-2,-1.6735743E-1,-6.291061E-2,2.0099116E-2,1.1495177E-1,-2.1661352E-2,-1.4817814E-2,-8.666368E-3,-4.309233E-3,-1.529952E-4,3.971434E-3,8.820801E-3,1.7108642E-2],"categories":[],"categories_nodes":[],"categories_segments":[],"categories_sizes":[],"default_left":[0,0,0,0,0,0,0,0,0,0,0,0,0,0,0],"id":16,"left_children":[1,3,5,7,9,11,13,-1,-1,-1,-1,-1,-1,-1,-1],"loss_changes":[2.5617785E1,4.0216093E0,6.881523E0,4.3363762E-1,6.8967295E-1,8.7700415E-1,1.8089294E0,0E0,0E0,0E0,0E0,0E0,0E0,0E0,0E0],"parents":[2147483647,0,0,1,1,2,2,3,3,4,4,5,5,6,6],"right_children":[2,4,6,8,10,12,14,-1,-1,-1,-1,-1,-1,-1,-1],"split_conditions":[3.9036027E-1,2.1016963E-1,5.4891115E-1,1.1611582E-1,3.1866404E-1,4.5696855E-1,6.5992314E-1,-2.1661352E-2,-1.4817814E-2,-8.666368E-3,-4.309233E-3,-1.529952E-4,3.971434E-3,8.820801E-3,1.7108642E-2],"split_indices":[8,8,8,8,8,8,8,0,0,0,0,0,0,0,0],"split_type":[0,0,0,0,0,0,0,0,0,0,0,0,0,0,0],"sum_hessian":[5.244E3,1.964E3,3.28E3,4.92E2,1.472E3,2.066E3,1.214E3,1.35E2,3.57E2,6.68E2,8.04E2,9.83E2,1.083E3,8.24E2,3.9E2],"tree_param":{"num_deleted":"0","num_feature":"10","num_nodes":"15","size_leaf_vector":"1"}},{"base_weights":[9.5245906E-4,-6.4922996E-2,7.081215E-2,-1.3483664E-1,-3.1892944E-2,5.1369514E-2,1.5374959E-1,-1.847581E-2,-1.0925072E-2,-5.735545E-3,-1.4554855E-3,3.1279058E-3,7.8045907E-3,1.3979035E-2,2.398285E-2],"categories":[],"categories_nodes":[],"categories_segments":[],"categories_sizes":[],"default_left":[0,0,0,0,0,0,0,0,0,0,0,0,0,0,0],"id":17,"left_children":[1,3,5,7,9,11,13,-1,-1,-1,-1,-1,-1,-1,-1],"loss_changes":[2.414229E1,6.2306776E0,4.097582E0,1.0859432E0,8.0926466E-1,1.1037407E0,5.4684544E-1,0E0,0E0,0E0,0E0,0E0,0E0,0E0,0E0],"parents":[2147483647,0,0,1,1,2,2,3,3,4,4,5,5,6,6],"right_children":[2,4,6,8,10,12,14,-1,-1,-1,-1,-1,-1,-1,-1],"split_conditions":[4.4115567E-1,2.8501156E-1,6.43915E-1,1.7575713E-1,3.5628557E-1,5.383552E-1,7.811428E-1,-1.847581E-2,-1.0925072E-2,-5.735545E-3,-1.4554855E-3,3.1279058E-3,7.8045907E-3,1.3979035E-2,2.398285E-2],"split_indices":[8,8,8,4,8,8,8,0,0,0,0,0,0,0,0],"split_type":[0,0,0,0,0,0,0,0,0,0,0,0,0,0,0],"sum_hessian":[5.244E3,2.699E3,2.545E3,8.65E2,1.834E3,2.063E3,4.82E2,2.91E2,5.74E2,7.42E2,1.092E3,1.178E3,8.85E2,4.17E2,6.5E1],"tree_param":{"num_deleted":"0","num_feature":"10","num_nodes":"15","size_leaf_vector":"1"}},{"base_weights":[-1.906288E-3,-6.5465495E-2,6.549817E-2,-1.2595056E-1,-3.2291178E-2,4.263017E-2,1.351251E-1,-1.7459018E-2,-1.0267328E-2,-5.104359E-3,-1.2756208E-3,2.36055E-3,6.6556865E-3,1.22773815E-2,2.3862515E-2],"categories":[],"categories_nodes":[],"categories_segments":[],"categories_sizes":[],"default_left":[0,0,0,0,0,0,0,0,0,0,0,0,0,0,0],"id":18,"left_children":[1,3,5,7,9,11,13,-1,-1,-1,-1,-1,-1,-1,-1],"loss_changes":[2.247478E1,5.413619E0,4.0480556E0,1.0644569E0,6.3859034E-1,8.7149763E-1,7.7479076E-1,0E0,0E0,0E0,0E0,0E0,0E0,0E0,0E0],"parents":[2147483647,0,0,1,1,2,2,3,3,4,4,5,5,6,6],"right_children":[2,4,6,8,10,12,14,-1,-1,-1,-1,-1,-1,-1,-1],"split_conditions":[4.4115567E-1,2.917674E-1,6.2280303E-1,1.7575713E-1,3.7649676E-1,5.2351344E-1,7.811428E-1,-1.7459018E-2,-1.0267328E-2,-5.104359E-3,-1.2756208E-3,2.36055E-3,6.6556865E-3,1.22773815E-2,2.3862515E-2],"split_indices":[8,8,8,8,8,8,8,0,0,0,0,0,0,0,0],"split_type":[0,0,0,0,0,0,0,0,0,0,0,0,0,0,0],"sum_hessian":[5.244E3,2.699E3,2.545E3,9.55E2,1.744E3,1.917E3,6.28E2,3.07E2,6.48E2,8.89E2,8.55E2,1.069E3,8.48E2,5.63E2,6.5E1],"tree_param":{"num_deleted":"0","num_feature":"10","num_nodes":"15","size_leaf_vector":"1"}},{"base_weights":[1.0321034E-3,-6.1040815E-2,6.497834E-2,-1.2366839E-1,-3.0825725E-2,4.6501875E-2,1.4525278E-1,-1.7155621E-2,-1.0156896E-2,-4.600884E-3,-6.854019E-4,2.7469143E-3,7.2592543E-3,1.32088605E-2,2.2642514E-2],"categories":[],"categories_nodes":[],"categories_segments":[],"categories_sizes":[],"default_left":[0,0,0,0,0,0,0,0,0,0,0,0,0,0,0],"id":19,"left_children":[1,3,5,7,9,11,13,-1,-1,-1,-1,-1,-1,-1,-1],"loss_changes":[2.0823101E1,5.0334845E0,3.8258038E0,8.990574E-1,6.5373015E-1,1.04181E0,4.8620987E-1,0E0,0E0,0E0,0E0,0E0,0E0,0E0,0E0],"parents":[2147483647,0,0,1,1,2,2,3,3,4,4,5,5,6,6],"right_children":[2,4,6,8,10,12,14,-1,-1,-1,-1,-1,-1,-1,-1],"split_conditions":[4.375244E-1,2.8501156E-1,6.43915E-1,1.7130978E-1,3.9036027E-1,5.383552E-1,7.811428E-1,-1.7155621E-2,-1.0156896E-2,-4.600884E-3,-6.854019E-4,2.7469143E-3,7.2592543E-3,1.32088605E-2,2.2642514E-2],"split_indices":[8,8,8,2,8,8,8,0,0,0,0,0,0,0,0],"split_type":[0,0,0,0,0,0,0,0,0,0,0,0,0,0,0],"sum_hessian":[5.244E3,2.661E3,2.583E3,8.65E2,1.796E3,2.101E3,4.82E2,2.71E2,5.94E2,1.099E3,6.97E2,1.216E3,8.85E2,4.17E2,6.5E1],"tree_param":{"num_deleted":"0","num_feature":"10","num_nodes":"15","size_leaf_vector":"1"}},{"base_weights":[8.595618E-4,-7.831474E-2,4.8277006E-2,-1.459144E-1,-5.458249E-2,1.7907519E-2,9.99029E-2,-1.9385252E-2,-1.2813977E-2,-7.686138E-3,-3.6470168E-3,2.5133902E-4,4.1409666E-3,7.775787E-3,1.4637284E-2],"categories":[],"categories_nodes":[],"categories_segments":[],"categories_sizes":[],"default_left":[0,0,0,0,0,0,0,0,0,0,0,0,0,0,0],"id":20,"left_children":[1,3,5,7,9,11,13,-1,-1,-1,-1,-1,-1,-1,-1],"loss_changes":[1.9694786E1,3.1444693E0,5.142333E0,4.0972233E-1,5.8472586E-1,7.4772626E-1,1.2389488E0,0E0,0E0,0E0,0E0,0E0,0E0,0E0,0E0],"parents":[2147483647,0,0,1,1,2,2,3,3,4,4,5,5,6,6],"right_children":[2,4,6,8,10,12,14,-1,-1,-1,-1,-1,-1,-1,-1],"split_conditions":[3.9036027E-1,2.1658768E-1,5.4891115E-1,1.1611582E-1,3.1866404E-1,4.8029727E-1,6.5992314E-1,-1.9385252E-2,-1.2813977E-2,-7.686138E-3,-3.6470168E-3,2.5133902E-4,4.1409666E-3,7.775787E-3,1.4637284E-2],"split_indices":[8,8,8,8,8,8,8,0,0,0,0,0,0,0,0],"split_type":[0,0,0,0,0,0,0,0,0,0,0,0,0,0,0],"sum_hessian":[5.244E3,1.964E3,3.28E3,5.09E2,1.455E3,2.066E3,1.214E3,1.35E2,3.74E2,6.51E2,8.04E2,1.249E3,8.17E2,8.24E2,3.9E2],"tree_param":{"num_deleted":"0","num_feature":"10","num_nodes":"15","size_leaf_vector":"1"}},{"base_weights":[-1.713552E-3,-7.2480634E-2,4.750832E-2,-1.4106438E-1,-5.0707635E-2,2.2291562E-2,1.0553421E-1,-1.934701E-2,-1.2529145E-2,-7.5653503E-3,-3.446182E-3,3.4517128E-4,4.439123E-3,9.011978E-3,1.7555553E-2],"categories":[],"categories_nodes":[],"categories_segments":[],"categories_sizes":[],"default_left":[0,0,0,0,0,0,0,0,0,0,0,0,0,0,0],"id":21,"left_children":[1,3,5,7,9,11,13,-1,-1,-1,-1,-1,-1,-1,-1],"loss_changes":[1.8273293E1,3.2063713E0,4.5248656E0,4.0393448E-1,6.600027E-1,8.983395E-1,9.9551964E-1,0E0,0E0,0E0,0E0,0E0,0E0,0E0,0E0],"parents":[2147483647,0,0,1,1,2,2,3,3,4,4,5,5,6,6],"right_children":[2,4,6,8,10,12,14,-1,-1,-1,-1,-1,-1,-1,-1],"split_conditions":[3.991182E-1,2.2167566E-1,5.805791E-1,9.500385E-2,3.1866404E-1,4.913177E-1,7.2836286E-1,-1.934701E-2,-1.2529145E-2,-7.5653503E-3,-3.446182E-3,3.4517128E-4,4.439123E-3,9.011978E-3,1.7555553E-2],"split_indices":[8,8,8,8,8,8,8,0,0,0,0,0,0,0,0],"split_type":[0,0,0,0,0,0,0,0,0,0,0,0,0,0,0],"sum_hessian":[5.244E3,2.151E3,3.093E3,5.17E2,1.634E3,2.157E3,9.36E2,1.17E2,4E2,6.43E2,9.91E2,1.165E3,9.92E2,7.69E2,1.67E2],"tree_param":{"num_deleted":"0","num_feature":"10","num_nodes":"15","size_leaf_vector":"1"}},{"base_weights":[9.3141943E-4,-6.553013E-2,4.9424157E-2,-1.3485746E-1,-4.431722E-2,2.6981376E-2,1.0750442E-1,-1.7900828E-2,-1.1882778E-2,-6.8082805E-3,-2.8147579E-3,6.5143965E-4,4.5843376E-3,8.338303E-3,1.4489572E-2],"categories":[],"categories_nodes":[],"categories_segments":[],"categories_sizes":[],"default_left":[0,0,0,0,0,0,0,0,0,0,0,0,0,0,0],"id":22,"left_children":[1,3,5,7,9,11,13,-1,-1,-1,-1,-1,-1,-1,-1],"loss_changes":[1.690736E1,3.248536E0,3.950562E0,3.4533024E-1,6.4982414E-1,8.4476054E-1,7.500496E-1,0E0,0E0,0E0,0E0,0E0,0E0,0E0,0E0],"parents":[2147483647,0,0,1,1,2,2,3,3,4,4,5,5,6,6],"right_children":[2,4,6,8,10,12,14,-1,-1,-1,-1,-1,-1,-1,-1],"split_conditions":[4.0408304E-1,2.2167566E-1,5.8412594E-1,1.1611582E-1,3.272355E-1,4.8456186E-1,6.7506045E-1,-1.7900828E-2,-1.1882778E-2,-6.8082805E-3,-2.8147579E-3,6.5143965E-4,4.5843376E-3,8.338303E-3,1.4489572E-2],"split_indices":[8,8,8,8,8,8,8,0,0,0,0,0,0,0,0],"split_type":[0,0,0,0,0,0,0,0,0,0,0,0,0,0,0],"sum_hessian":[5.244E3,2.212E3,3.032E3,5.17E2,1.695E3,2.188E3,8.44E2,1.35E2,3.82E2,6.85E2,1.01E3,1.05E3,1.138E3,5.15E2,3.29E2],"tree_param":{"num_deleted":"0","num_feature":"10","num_nodes":"15","size_leaf_vector":"1"}},{"base_weights":[7.704136E-4,-6.392243E-2,4.7972687E-2,-1.2323224E-1,-4.0553927E-2,2.427777E-2,9.8725855E-2,-1.595908E-2,-1.02094095E-2,-6.0431287E-3,-2.3719503E-3,7.33362E-4,4.4150967E-3,8.460792E-3,1.6519843E-2],"categories":[],"categories_nodes":[],"categories_segments":[],"categories_sizes":[],"default_left":[0,0,0,0,0,0,0,0,0,0,0,0,0,0,0],"id":23,"left_children":[1,3,5,7,9,11,13,-1,-1,-1,-1,-1,-1,-1,-1],"loss_changes":[1.6019457E1,3.0621777E0,3.6450639E0,4.640522E-1,5.302839E-1,6.963798E-1,8.9163303E-1,0E0,0E0,0E0,0E0,0E0,0E0,0E0,0E0],"parents":[2147483647,0,0,1,1,2,2,3,3,4,4,5,5,6,6],"right_children":[2,4,6,8,10,12,14,-1,-1,-1,-1,-1,-1,-1,-1],"split_conditions":[4.0408304E-1,2.4278763E-1,5.7354176E-1,1.671315E-1,3.3779147E-1,4.9222553E-1,7.2836286E-1,-1.595908E-2,-1.02094095E-2,-6.0431287E-3,-2.3719503E-3,7.33362E-4,4.4150967E-3,8.460792E-3,1.6519843E-2],"split_indices":[8,8,8,2,8,8,8,0,0,0,0,0,0,0,0],"split_type":[0,0,0,0,0,0,0,0,0,0,0,0,0,0,0],"sum_hessian":[5.244E3,2.212E3,3.032E3,6.24E2,1.588E3,2.068E3,9.64E2,2.27E2,3.97E2,7.27E2,8.61E2,1.117E3,9.51E2,7.97E2,1.67E2],"tree_param":{"num_deleted":"0","num_feature":"10","num_nodes":"15","size_leaf_vector":"1"}},{"base_weights":[-1.544394E-3,-5.7569932E-2,4.9074307E-2,-1.16663106E-1,-3.5439353E-2,3.365889E-2,1.2154964E-1,-1.7428704E-2,-1.0433461E-2,-5.7538077E-3,-1.9543264E-3,1.7298729E-3,5.9269047E-3,1.0921386E-2,1.9783461E-2],"categories":[],"categories_nodes":[],"categories_segments":[],"categories_sizes":[],"default_left":[0,0,0,0,0,0,0,0,0,0,0,0,0,0,0],"id":24,"left_children":[1,3,5,7,9,11,13,-1,-1,-1,-1,-1,-1,-1,-1],"loss_changes":[1.4877331E1,3.252202E0,3.075015E0,4.634781E-1,6.357522E-1,9.5174956E-1,4.329133E-1,0E0,0E0,0E0,0E0,0E0,0E0,0E0,0E0],"parents":[2147483647,0,0,1,1,2,2,3,3,4,4,5,5,6,6],"right_children":[2,4,6,8,10,12,14,-1,-1,-1,-1,-1,-1,-1,-1],"split_conditions":[4.2958632E-1,2.4466659E-1,6.43915E-1,9.500385E-2,3.448288E-1,5.383552E-1,7.811428E-1,-1.7428704E-2,-1.0433461E-2,-5.7538077E-3,-1.9543264E-3,1.7298729E-3,5.9269047E-3,1.0921386E-2,1.9783461E-2],"split_indices":[8,8,8,8,8,8,8,0,0,0,0,0,0,0,0],"split_type":[0,0,0,0,0,0,0,0,0,0,0,0,0,0,0],"sum_hessian":[5.244E3,2.489E3,2.755E3,6.77E2,1.812E3,2.273E3,4.82E2,1.17E2,5.6E2,7.57E2,1.055E3,1.388E3,8.85E2,4.17E2,6.5E1],"tree_param":{"num_deleted":"0","num_feature":"10","num_nodes":"15","size_leaf_vector":"1"}},{"base_weights":[8.361124E-4,-4.9625944E-2,5.282108E-2,-1.1417525E-1,-2.9806051E-2,3.7752274E-2,1.1829066E-1,-1.612391E-2,-1.0087963E-2,-4.902765E-3,-1.1204458E-3,2.2086126E-3,5.922852E-3,1.0670794E-2,1.8985566E-2],"categories":[],"categories_nodes":[],"categories_segments":[],"categories_sizes":[],"default_left":[0,0,0,0,0,0,0,0,0,0,0,0,0,0,0],"id":25,"left_children":[1,3,5,7,9,11,13,-1,-1,-1,-1,-1,-1,-1,-1],"loss_changes":[1.3761664E1,3.4022546E0,2.5447755E0,3.7482357E-1,7.281424E-1,7.0590997E-1,3.8010836E-1,0E0,0E0,0E0,0E0,0E0,0E0,0E0,0E0],"parents":[2147483647,0,0,1,1,2,2,3,3,4,4,5,5,6,6],"right_children":[2,4,6,8,10,12,14,-1,-1,-1,-1,-1,-1,-1,-1],"split_conditions":[4.375244E-1,2.4278763E-1,6.43915E-1,1.1611582E-1,3.5890344E-1,5.383552E-1,7.811428E-1,-1.612391E-2,-1.0087963E-2,-4.902765E-3,-1.1204458E-3,2.2086126E-3,5.922852E-3,1.0670794E-2,1.8985566E-2],"split_indices":[8,8,8,8,8,8,8,0,0,0,0,0,0,0,0],"split_type":[0,0,0,0,0,0,0,0,0,0,0,0,0,0,0],"sum_hessian":[5.244E3,2.661E3,2.583E3,6.24E2,2.037E3,2.101E3,4.82E2,1.35E2,4.89E2,1.001E3,1.036E3,1.216E3,8.85E2,4.17E2,6.5E1],"tree_param":{"num_deleted":"0","num_feature":"10","num_nodes":"15","size_leaf_vector":"1"}},{"base_weights":[6.925152E-4,-4.8456326E-2,5.1324684E-2,-1.00576036E-1,-2.4078382E-2,3.691625E-2,1.1392346E-1,-1.396536E-2,-7.990956E-3,-4.216298E-3,-9.065592E-4,2.1343548E-3,5.492925E-3,1.0234556E-2,1.8552402E-2],"categories":[],"categories_nodes":[],"categories_segments":[],"categories_sizes":[],"default_left":[0,0,0,0,0,0,0,0,0,0,0,0,0,0,0],"id":26,"left_children":[1,3,5,7,9,11,13,-1,-1,-1,-1,-1,-1,-1,-1],"loss_changes":[1.3054735E1,3.379839E0,2.3264337E0,6.7368126E-1,4.9239063E-1,5.884619E-1,3.8141155E-1,0E0,0E0,0E0,0E0,0E0,0E0,0E0,0E0],"parents":[2147483647,0,0,1,1,2,2,3,3,4,4,5,5,6,6],"right_children":[2,4,6,8,10,12,14,-1,-1,-1,-1,-1,-1,-1,-1],"split_conditions":[4.375244E-1,2.820344E-1,6.43915E-1,1.7575713E-1,3.5890344E-1,5.2759653E-1,7.811428E-1,-1.396536E-2,-7.990956E-3,-4.216298E-3,-9.065592E-4,2.1343548E-3,5.492925E-3,1.0234556E-2,1.8552402E-2],"split_indices":[8,2,8,8,8,8,8,0,0,0,0,0,0,0,0],"split_type":[0,0,0,0,0,0,0,0,0,0,0,0,0,0,0],"sum_hessian":[5.244E3,2.661E3,2.583E3,8.47E2,1.814E3,2.101E3,4.82E2,2.91E2,5.56E2,8.22E2,9.92E2,1.128E3,9.73E2,4.17E2,6.5E1],"tree_param":{"num_deleted":"0","num_feature":"10","num_nodes":"15","size_leaf_vector":"1"}},{"base_weights":[-1.3894213E-3,-4.5861535E-2,5.07039E-2,-8.982554E-2,-2.0577509E-2,3.7287388E-2,1.15304284E-1,-1.2178713E-2,-6.8766153E-3,-3.3964922E-3,-6.130589E-4,2.1320512E-3,5.480517E-3,1.05339615E-2,1.9906051E-2],"categories":[],"categories_nodes":[],"categories_segments":[],"categories_sizes":[],"default_left":[0,0,0,0,0,0,0,0,0,0,0,0,0,0,0],"id":27,"left_children":[1,3,5,7,9,11,13,-1,-1,-1,-1,-1,-1,-1,-1],"loss_changes":[1.2153418E1,3.1439438E0,2.0896769E0,6.8692875E-1,3.4753728E-1,5.587995E-1,3.253913E-1,0E0,0E0,0E0,0E0,0E0,0E0,0E0,0E0],"parents":[2147483647,0,0,1,1,2,2,3,3,4,4,5,5,6,6],"right_children":[2,4,6,8,10,12,14,-1,-1,-1,-1,-1,-1,-1,-1],"split_conditions":[4.539073E-1,3.0612352E-1,6.5095234E-1,2.0056368E-1,3.9036027E-1,5.383552E-1,8.192921E-1,-1.2178713E-2,-6.8766153E-3,-3.3964922E-3,-6.130589E-4,2.1320512E-3,5.480517E-3,1.05339615E-2,1.9906051E-2],"split_indices":[8,8,8,8,8,8,8,0,0,0,0,0,0,0,0],"split_type":[0,0,0,0,0,0,0,0,0,0,0,0,0,0,0],"sum_hessian":[5.244E3,2.829E3,2.415E3,1.032E3,1.797E3,2.001E3,4.14E2,4.08E2,6.24E2,9.32E2,8.65E2,1.048E3,9.53E2,3.72E2,4.2E1],"tree_param":{"num_deleted":"0","num_feature":"10","num_nodes":"15","size_leaf_vector":"1"}},{"base_weights":[7.535604E-4,-5.893445E-2,3.6500648E-2,-1.1185436E-1,-4.118262E-2,1.3112421E-2,7.6259464E-2,-1.4941442E-2,-9.976941E-3,-6.0515543E-3,-2.9928281E-3,1.4399945E-4,3.0092567E-3,5.8394237E-3,1.137596E-2],"categories":[],"categories_nodes":[],"categories_segments":[],"categories_sizes":[],"default_left":[0,0,0,0,0,0,0,0,0,0,0,0,0,0,0],"id":28,"left_children":[1,3,5,7,9,11,13,-1,-1,-1,-1,-1,-1,-1,-1],"loss_changes":[1.1193263E1,1.8413644E0,3.049963E0,2.0887089E-1,3.1868315E-1,4.09635E-1,8.073454E-1,0E0,0E0,0E0,0E0,0E0,0E0,0E0,0E0],"parents":[2147483647,0,0,1,1,2,2,3,3,4,4,5,5,6,6],"right_children":[2,4,6,8,10,12,14,-1,-1,-1,-1,-1,-1,-1,-1],"split_conditions":[3.9036027E-1,2.1016963E-1,5.4891115E-1,9.500385E-2,3.0612352E-1,4.750826E-1,6.5992314E-1,-1.4941442E-2,-9.976941E-3,-6.0515543E-3,-2.9928281E-3,1.4399945E-4,3.0092567E-3,5.8394237E-3,1.137596E-2],"split_indices":[8,8,8,8,8,8,8,0,0,0,0,0,0,0,0],"split_type":[0,0,0,0,0,0,0,0,0,0,0,0,0,0,0],"sum_hessian":[5.244E3,1.964E3,3.28E3,4.92E2,1.472E3,2.066E3,1.214E3,1.17E2,3.75E2,5.4E2,9.32E2,1.225E3,8.41E2,8.24E2,3.9E2],"tree_param":{"num_deleted":"0","num_feature":"10","num_nodes":"15","size_leaf_vector":"1"}},{"base_weights":[6.250427E-4,-5.747002E-2,3.5418145E-2,-1.08821094E-1,-4.0244255E-2,1.3082295E-2,7.338752E-2,-1.4982738E-2,-9.566269E-3,-6.0916822E-3,-2.8560928E-3,1.5296556E-4,2.9888058E-3,6.3378955E-3,1.3538507E-2],"categories":[],"categories_nodes":[],"categories_segments":[],"categories_sizes":[],"default_left":[0,0,0,0,0,0,0,0,0,0,0,0,0,0,0],"id":29,"left_children":[1,3,5,7,9,11,13,-1,-1,-1,-1,-1,-1,-1,-1],"loss_changes":[1.0603793E1,1.7337842E0,2.7815847E0,2.5167847E-1,3.5402584E-1,4.0126422E-1,7.453346E-1,0E0,0E0,0E0,0E0,0E0,0E0,0E0,0E0],"parents":[2147483647,0,0,1,1,2,2,3,3,4,4,5,5,6,6],"right_children":[2,4,6,8,10,12,14,-1,-1,-1,-1,-1,-1,-1,-1],"split_conditions":[3.9036027E-1,2.1016963E-1,5.4891115E-1,9.500385E-2,3.057013E-1,4.750826E-1,7.2836286E-1,-1.4982738E-2,-9.566269E-3,-6.0916822E-3,-2.8560928E-3,1.5296556E-4,2.9888058E-3,6.3378955E-3,1.3538507E-2],"split_indices":[8,8,8,8,8,8,8,0,0,0,0,0,0,0,0],"split_type":[0,0,0,0,0,0,0,0,0,0,0,0,0,0,0],"sum_hessian":[5.244E3,1.964E3,3.28E3,4.92E2,1.472E3,2.066E3,1.214E3,1.17E2,3.75E2,5.3E2,9.42E2,1.225E3,8.41E2,1.047E3,1.67E2],"tree_param":{"num_deleted":"0","num_feature":"10","num_nodes":"15","size_leaf_vector":"1"}},{"base_weights":[-1.2476265E-3,-3.953571E-2,4.787096E-2,-9.301566E-2,-2.227489E-2,3.4287717E-2,9.884259E-2,-1.4078266E-2,-8.173256E-3,-4.5983735E-3,-1.1032145E-3,2.1320828E-3,4.7874497E-3,8.7018125E-3,1.5397291E-2],"categories":[],"categories_nodes":[],"categories_segments":[],"categories_sizes":[],"default_left":[0,0,0,0,0,0,0,0,0,0,0,0,0,0,0],"id":30,"left_children":[1,3,5,7,9,11,13,-1,-1,-1,-1,-1,-1,-1,-1],"loss_changes":[9.865935E0,2.7192492E0,1.5876541E0,3.7600517E-1,5.9390485E-1,3.1891894E-1,3.0146265E-1,0E0,0E0,0E0,0E0,0E0,0E0,0E0,0E0],"parents":[2147483647,0,0,1,1,2,2,3,3,4,4,5,5,6,6],"right_children":[2,4,6,8,10,12,14,-1,-1,-1,-1,-1,-1,-1,-1],"split_conditions":[4.5696855E-1,2.5741822E-1,6.43915E-1,1.1611582E-1,3.448288E-1,5.383552E-1,7.705868E-1,-1.4078266E-2,-8.173256E-3,-4.5983735E-3,-1.1032145E-3,2.1320828E-3,4.7874497E-3,8.7018125E-3,1.5397291E-2],"split_indices":[8,8,8,8,8,8,8,0,0,0,0,0,0,0,0],"split_type":[0,0,0,0,0,0,0,0,0,0,0,0,0,0,0],"sum_hessian":[5.244E3,2.947E3,2.297E3,7.18E2,2.229E3,1.815E3,4.82E2,1.35E2,5.83E2,7.16E2,1.513E3,9.3E2,8.85E2,3.99E2,8.3E1],"tree_param":{"num_deleted":"0","num_feature":"10","num_nodes":"15","size_leaf_vector":"1"}},{"base_weights":[6.7561487E-4,-4.037557E-2,4.2965703E-2,-8.853928E-2,-2.2541171E-2,2.837069E-2,8.828348E-2,-1.1922035E-2,-7.3490636E-3,-4.1566896E-3,-1.1241281E-3,1.4121349E-3,4.2006825E-3,7.834429E-3,1.5183724E-2],"categories":[],"categories_nodes":[],"categories_segments":[],"categories_sizes":[],"default_left":[0,0,0,0,0,0,0,0,0,0,0,0,0,0,0],"id":31,"left_children":[1,3,5,7,9,11,13,-1,-1,-1,-1,-1,-1,-1,-1],"loss_changes":[9.107361E0,2.2845845E0,1.7065883E0,3.2320738E-1,4.1747046E-1,3.7946928E-1,3.8542652E-1,0E0,0E0,0E0,0E0,0E0,0E0,0E0,0E0],"parents":[2147483647,0,0,1,1,2,2,3,3,4,4,5,5,6,6],"right_children":[2,4,6,8,10,12,14,-1,-1,-1,-1,-1,-1,-1,-1],"split_conditions":[4.375244E-1,2.5437808E-1,6.2280303E-1,1.671315E-1,3.448288E-1,5.172432E-1,7.705868E-1,-1.1922035E-2,-7.3490636E-3,-4.1566896E-3,-1.1241281E-3,1.4121349E-3,4.2006825E-3,7.834429E-3,1.5183724E-2],"split_indices":[8,6,8,2,8,8,8,0,0,0,0,0,0,0,0],"split_type":[0,0,0,0,0,0,0,0,0,0,0,0,0,0,0],"sum_hessian":[5.244E3,2.661E3,2.583E3,7.18E2,1.943E3,1.955E3,6.28E2,2.34E2,4.84E2,7.23E2,1.22E3,9.57E2,9.98E2,5.45E2,8.3E1],"tree_param":{"num_deleted":"0","num_feature":"10","num_nodes":"15","size_leaf_vector":"1"}},{"base_weights":[5.6054443E-4,-3.8869172E-2,4.2375028E-2,-8.300933E-2,-1.9027876E-2,2.805556E-2,8.5971795E-2,-1.1753577E-2,-6.827233E-3,-3.684297E-3,-9.368443E-4,1.1852011E-3,3.6705255E-3,7.6609002E-3,1.4580651E-2],"categories":[],"categories_nodes":[],"categories_segments":[],"categories_sizes":[],"default_left":[0,0,0,0,0,0,0,0,0,0,0,0,0,0,0],"id":32,"left_children":[1,3,5,7,9,11,13,-1,-1,-1,-1,-1,-1,-1,-1],"loss_changes":[8.649254E0,2.3630753E0,1.5870113E0,4.178543E-1,3.2041883E-1,2.6838374E-1,3.4120846E-1,0E0,0E0,0E0,0E0,0E0,0E0,0E0,0E0],"parents":[2147483647,0,0,1,1,2,2,3,3,4,4,5,5,6,6],"right_children":[2,4,6,8,10,12,14,-1,-1,-1,-1,-1,-1,-1,-1],"split_conditions":[4.4115567E-1,2.720488E-1,6.2280303E-1,1.8417525E-1,3.4834746E-1,4.9613124E-1,7.705868E-1,-1.1753577E-2,-6.827233E-3,-3.684297E-3,-9.368443E-4,1.1852011E-3,3.6705255E-3,7.6609002E-3,1.4580651E-2],"split_indices":[8,4,8,0,8,8,8,0,0,0,0,0,0,0,0],"split_type":[0,0,0,0,0,0,0,0,0,0,0,0,0,0,0],"sum_hessian":[5.244E3,2.699E3,2.545E3,8.36E2,1.863E3,1.917E3,6.28E2,2.48E2,5.88E2,6.54E2,1.209E3,6.68E2,1.249E3,5.45E2,8.3E1],"tree_param":{"num_deleted":"0","num_feature":"10","num_nodes":"15","size_leaf_vector":"1"}},{"base_weights":[-1.1222762E-3,-4.8092697E-2,3.154788E-2,-9.582513E-2,-3.3887766E-2,1.5739314E-2,7.360436E-2,-1.2882191E-2,-8.327682E-3,-4.591453E-3,-1.951566E-3,2.560653E-4,3.123515E-3,6.223564E-3,1.1904716E-2],"categories":[],"categories_nodes":[],"categories_segments":[],"categories_sizes":[],"default_left":[0,0,0,0,0,0,0,0,0,0,0,0,0,0,0],"id":33,"left_children":[1,3,5,7,9,11,13,-1,-1,-1,-1,-1,-1,-1,-1],"loss_changes":[8.050132E0,1.4558859E0,2.055895E0,1.9340086E-1,2.860347E-1,4.5940226E-1,4.2914057E-1,0E0,0E0,0E0,0E0,0E0,0E0,0E0,0E0],"parents":[2147483647,0,0,1,1,2,2,3,3,4,4,5,5,6,6],"right_children":[2,4,6,8,10,12,14,-1,-1,-1,-1,-1,-1,-1,-1],"split_conditions":[3.991182E-1,2.1016963E-1,5.8412594E-1,1.1611582E-1,3.4106383E-1,4.9613124E-1,7.2836286E-1,-1.2882191E-2,-8.327682E-3,-4.591453E-3,-1.951566E-3,2.560653E-4,3.123515E-3,6.223564E-3,1.1904716E-2],"split_indices":[8,8,8,6,8,8,8,0,0,0,0,0,0,0,0],"split_type":[0,0,0,0,0,0,0,0,0,0,0,0,0,0,0],"sum_hessian":[5.244E3,2.151E3,3.093E3,4.92E2,1.659E3,2.249E3,8.44E2,1.33E2,3.59E2,9.02E2,7.57E2,1.216E3,1.033E3,6.77E2,1.67E2],"tree_param":{"num_deleted":"0","num_feature":"10","num_nodes":"15","size_leaf_vector":"1"}},{"base_weights":[6.0882536E-4,-4.4153422E-2,3.22612E-2,-9.154834E-2,-3.0227277E-2,1.5461991E-2,6.732985E-2,-1.2335992E-2,-8.132144E-3,-5.2488893E-3,-2.238908E-3,3.3897941E-4,2.7565812E-3,5.7417154E-3,1.1578447E-2],"categories":[],"categories_nodes":[],"categories_segments":[],"categories_sizes":[],"default_left":[0,0,0,0,0,0,0,0,0,0,0,0,0,0,0],"id":34,"left_children":[1,3,5,7,9,11,13,-1,-1,-1,-1,-1,-1,-1,-1],"loss_changes":[7.4327054E0,1.4314752E0,1.8093419E0,1.5035772E-1,2.9214394E-1,3.036894E-1,4.712658E-1,0E0,0E0,0E0,0E0,0E0,0E0,0E0,0E0],"parents":[2147483647,0,0,1,1,2,2,3,3,4,4,5,5,6,6],"right_children":[2,4,6,8,10,12,14,-1,-1,-1,-1,-1,-1,-1,-1],"split_conditions":[4.0072626E-1,2.1016963E-1,5.700231E-1,9.500385E-2,3.0276364E-1,4.8029727E-1,7.2836286E-1,-1.2335992E-2,-8.132144E-3,-5.2488893E-3,-2.238908E-3,3.3897941E-4,2.7565812E-3,5.7417154E-3,1.1578447E-2],"split_indices":[8,8,8,8,0,8,8,0,0,0,0,0,0,0,0],"split_type":[0,0,0,0,0,0,0,0,0,0,0,0,0,0,0],"sum_hessian":[5.244E3,2.172E3,3.072E3,4.92E2,1.68E3,2.078E3,9.94E2,1.17E2,3.75E2,4.36E2,1.244E3,1.041E3,1.037E3,8.27E2,1.67E2],"tree_param":{"num_deleted":"0","num_feature":"10","num_nodes":"15","size_leaf_vector":"1"}},{"base_weights":[5.052283E-4,-4.2353693E-2,3.177667E-2,-7.919496E-2,-2.4643544E-2,1.8099291E-2,7.251582E-2,-1.0865909E-2,-6.4725406E-3,-3.744863E-3,-1.5587746E-3,4.994813E-4,3.0768304E-3,6.5124454E-3,1.3139943E-2],"categories":[],"categories_nodes":[],"categories_segments":[],"categories_sizes":[],"default_left":[0,0,0,0,0,0,0,0,0,0,0,0,0,0,0],"id":35,"left_children":[1,3,5,7,9,11,13,-1,-1,-1,-1,-1,-1,-1,-1],"loss_changes":[7.0310116E0,1.4419522E0,1.68869E0,2.990737E-1,1.7289281E-1,3.770455E-1,3.2308817E-1,0E0,0E0,0E0,0E0,0E0,0E0,0E0,0E0],"parents":[2147483647,0,0,1,1,2,2,3,3,4,4,5,5,6,6],"right_children":[2,4,6,8,10,12,14,-1,-1,-1,-1,-1,-1,-1,-1],"split_conditions":[4.0408304E-1,2.5437808E-1,6.0169107E-1,1.671315E-1,3.3779147E-1,4.9222553E-1,7.705868E-1,-1.0865909E-2,-6.4725406E-3,-3.744863E-3,-1.5587746E-3,4.994813E-4,3.0768304E-3,6.5124454E-3,1.3139943E-2],"split_indices":[8,6,8,2,6,8,8,0,0,0,0,0,0,0,0],"split_type":[0,0,0,0,0,0,0,0,0,0,0,0,0,0,0],"sum_hessian":[5.244E3,2.212E3,3.032E3,7.17E2,1.495E3,2.271E3,7.61E2,2.34E2,4.83E2,6.18E2,8.77E2,1.117E3,1.154E3,6.78E2,8.3E1],"tree_param":{"num_deleted":"0","num_feature":"10","num_nodes":"15","size_leaf_vector":"1"}},{"base_weights":[-1.0112355E-3,-3.533417E-2,3.538819E-2,-7.7454425E-2,-2.1200279E-2,2.2728499E-2,7.393493E-2,-1.0731971E-2,-6.534861E-3,-3.7538197E-3,-1.1401431E-3,9.6986827E-4,3.2492012E-3,6.8020793E-3,1.5295031E-2],"categories":[],"categories_nodes":[],"categories_segments":[],"categories_sizes":[],"default_left":[0,0,0,0,0,0,0,0,0,0,0,0,0,0,0],"id":36,"left_children":[1,3,5,7,9,11,13,-1,-1,-1,-1,-1,-1,-1,-1],"loss_changes":[6.5540133E0,1.6057303E0,1.2407413E0,2.381134E-1,3.2343966E-1,2.4368668E-1,2.8353262E-1,0E0,0E0,0E0,0E0,0E0,0E0,0E0,0E0],"parents":[2147483647,0,0,1,1,2,2,3,3,4,4,5,5,6,6],"right_children":[2,4,6,8,10,12,14,-1,-1,-1,-1,-1,-1,-1,-1],"split_conditions":[4.4115567E-1,2.4466659E-1,6.2280303E-1,1.3722779E-1,3.448288E-1,5.066872E-1,8.192921E-1,-1.0731971E-2,-6.534861E-3,-3.7538197E-3,-1.1401431E-3,9.6986827E-4,3.2492012E-3,6.8020793E-3,1.5295031E-2],"split_indices":[8,8,8,8,8,8,8,0,0,0,0,0,0,0,0],"split_type":[0,0,0,0,0,0,0,0,0,0,0,0,0,0,0],"sum_hessian":[5.244E3,2.699E3,2.545E3,6.77E2,2.022E3,1.917E3,6.28E2,1.93E2,4.84E2,7.57E2,1.265E3,8.22E2,1.095E3,5.86E2,4.2E1],"tree_param":{"num_deleted":"0","num_feature":"10","num_nodes":"15","size_leaf_vector":"1"}},{"base_weights":[5.465012E-4,-4.3402232E-2,2.6867354E-2,-8.2435034E-2,-3.0308839E-2,9.4934385E-3,5.5755064E-2,-1.1112847E-2,-7.321093E-3,-4.3384186E-3,-2.0512897E-3,1.35309065E-5,2.0077128E-3,4.219274E-3,8.481829E-3],"categories":[],"categories_nodes":[],"categories_segments":[],"categories_sizes":[],"default_left":[0,0,0,0,0,0,0,0,0,0,0,0,0,0,0],"id":37,"left_children":[1,3,5,7,9,11,13,-1,-1,-1,-1,-1,-1,-1,-1],"loss_changes":[6.068415E0,1.0017579E0,1.6461806E0,1.2234712E-1,1.8777966E-1,2.0303653E-1,4.820323E-1,0E0,0E0,0E0,0E0,0E0,0E0,0E0,0E0],"parents":[2147483647,0,0,1,1,2,2,3,3,4,4,5,5,6,6],"right_children":[2,4,6,8,10,12,14,-1,-1,-1,-1,-1,-1,-1,-1],"split_conditions":[3.9036027E-1,2.1016963E-1,5.45871E-1,9.500385E-2,3.1148598E-1,4.692346E-1,6.5992314E-1,-1.1112847E-2,-7.321093E-3,-4.3384186E-3,-2.0512897E-3,1.35309065E-5,2.0077128E-3,4.219274E-3,8.481829E-3],"split_indices":[8,8,8,8,8,8,8,0,0,0,0,0,0,0,0],"split_type":[0,0,0,0,0,0,0,0,0,0,0,0,0,0,0],"sum_hessian":[5.244E3,1.964E3,3.28E3,4.92E2,1.472E3,2.049E3,1.231E3,1.17E2,3.75E2,6.29E2,8.43E2,1.088E3,9.61E2,8.41E2,3.9E2],"tree_param":{"num_deleted":"0","num_feature":"10","num_nodes":"15","size_leaf_vector":"1"}},{"base_weights":[4.5481283E-4,-4.2243715E-2,2.6026942E-2,-6.820814E-2,-2.2917088E-2,1.2002119E-2,5.9674077E-2,-9.538442E-3,-5.3652483E-3,-3.1111336E-3,-1.4925958E-3,-1.17477786E-4,2.1712813E-3,4.8870114E-3,9.438308E-3],"categories":[],"categories_nodes":[],"categories_segments":[],"categories_sizes":[],"default_left":[0,0,0,0,0,0,0,0,0,0,0,0,0,0,0],"id":38,"left_children":[1,3,5,7,9,11,13,-1,-1,-1,-1,-1,-1,-1,-1],"loss_changes":[5.7280746E0,9.84483E-1,1.5475717E0,3.2636905E-1,7.339853E-2,2.965014E-1,3.5725737E-1,0E0,0E0,0E0,0E0,0E0,0E0,0E0,0E0],"parents":[2147483647,0,0,1,1,2,2,3,3,4,4,5,5,6,6],"right_children":[2,4,6,8,10,12,14,-1,-1,-1,-1,-1,-1,-1,-1],"split_conditions":[3.9036027E-1,2.9331616E-1,5.7354176E-1,1.7575713E-1,3.3779147E-1,4.5696855E-1,7.019043E-1,-9.538442E-3,-5.3652483E-3,-3.1111336E-3,-1.4925958E-3,-1.17477786E-4,2.1712813E-3,4.8870114E-3,9.438308E-3],"split_indices":[8,0,8,6,6,8,8,0,0,0,0,0,0,0,0],"split_type":[0,0,0,0,0,0,0,0,0,0,0,0,0,0,0],"sum_hessian":[5.244E3,1.964E3,3.28E3,8.37E2,1.127E3,2.316E3,9.64E2,2.9E2,5.47E2,5.55E2,5.72E2,9.83E2,1.333E3,7.37E2,2.27E2],"tree_param":{"num_deleted":"0","num_feature":"10","num_nodes":"15","size_leaf_vector":"1"}},{"base_weights":[-9.0932124E-4,-4.217504E-2,2.380511E-2,-7.812094E-2,-3.0115634E-2,1.1497853E-2,6.0667902E-2,-1.1760159E-2,-7.0530535E-3,-4.1365447E-3,-2.1682582E-3,-1.6915053E-4,2.2862733E-3,4.8630745E-3,9.176178E-3],"categories":[],"categories_nodes":[],"categories_segments":[],"categories_sizes":[],"default_left":[0,0,0,0,0,0,0,0,0,0,0,0,0,0,0],"id":39,"left_children":[1,3,5,7,9,11,13,-1,-1,-1,-1,-1,-1,-1,-1],"loss_changes":[5.350163E0,8.494477E-1,1.487826E0,1.3944483E-1,1.38847E-1,3.6893138E-1,3.0282283E-1,0E0,0E0,0E0,0E0,0E0,0E0,0E0,0E0],"parents":[2147483647,0,0,1,1,2,2,3,3,4,4,5,5,6,6],"right_children":[2,4,6,8,10,12,14,-1,-1,-1,-1,-1,-1,-1,-1],"split_conditions":[3.9036027E-1,2.1016963E-1,5.8956224E-1,7.3891886E-2,3.1148598E-1,4.7501928E-1,7.019043E-1,-1.1760159E-2,-7.0530535E-3,-4.1365447E-3,-2.1682582E-3,-1.6915053E-4,2.2862733E-3,4.8630745E-3,9.176178E-3],"split_indices":[8,8,8,8,8,8,8,0,0,0,0,0,0,0,0],"split_type":[0,0,0,0,0,0,0,0,0,0,0,0,0,0,0],"sum_hessian":[5.244E3,1.964E3,3.28E3,4.92E2,1.472E3,2.46E3,8.2E2,7.7E1,4.15E2,6.29E2,8.43E2,1.139E3,1.321E3,5.93E2,2.27E2],"tree_param":{"num_deleted":"0","num_feature":"10","num_nodes":"15","size_leaf_vector":"1"}},{"base_weights":[4.899225E-4,-3.9074644E-2,2.4185102E-2,-7.422892E-2,-2.7282292E-2,1.3054487E-2,6.096327E-2,-8.425318E-3,-5.02923E-3,-4.480466E-3,-2.1105988E-3,3.7291585E-4,2.8128016E-3,5.601149E-3,1.42459E-2],"categories":[],"categories_nodes":[],"categories_segments":[],"categories_sizes":[],"default_left":[0,0,0,0,0,0,0,0,0,0,0,0,0,0,0],"id":40,"left_children":[1,3,5,7,9,11,13,-1,-1,-1,-1,-1,-1,-1,-1],"loss_changes":[4.9180775E0,8.125689E-1,1.342326E0,1.1405635E-1,1.5846753E-1,3.5412046E-1,2.9952478E-1,0E0,0E0,0E0,0E0,0E0,0E0,0E0,0E0],"parents":[2147483647,0,0,1,1,2,2,3,3,4,4,5,5,6,6],"right_children":[2,4,6,8,10,12,14,-1,-1,-1,-1,-1,-1,-1,-1],"split_conditions":[3.9036027E-1,2.1016963E-1,6.0169107E-1,2.3556697E-1,2.901374E-1,5.066872E-1,8.192921E-1,-8.425318E-3,-5.02923E-3,-4.480466E-3,-2.1105988E-3,3.7291585E-4,2.8128016E-3,5.601149E-3,1.42459E-2],"split_indices":[8,8,8,0,0,8,8,0,0,0,0,0,0,0,0],"split_type":[0,0,0,0,0,0,0,0,0,0,0,0,0,0,0],"sum_hessian":[5.244E3,1.964E3,3.28E3,4.92E2,1.472E3,2.519E3,7.61E2,3.45E2,1.47E2,3.82E2,1.09E3,1.557E3,9.62E2,7.19E2,4.2E1],"tree_param":{"num_deleted":"0","num_feature":"10","num_nodes":"15","size_leaf_vector":"1"}},{"base_weights":[4.087378E-4,-2.8518742E-2,3.1085793E-2,-6.1613537E-2,-1.3357972E-2,2.1896873E-2,7.0288375E-2,-8.638807E-3,-4.8515196E-3,-2.184353E-3,-1.6049904E-4,1.4291028E-3,3.7983132E-3,6.366785E-3,1.317993E-2],"categories":[],"categories_nodes":[],"categories_segments":[],"categories_sizes":[],"default_left":[0,0,0,0,0,0,0,0,0,0,0,0,0,0,0],"id":41,"left_children":[1,3,5,7,9,11,13,-1,-1,-1,-1,-1,-1,-1,-1],"loss_changes":[4.655351E0,1.3538816E0,9.1560507E-1,2.7098942E-1,1.8476585E-1,2.5198674E-1,1.88303E-1,0E0,0E0,0E0,0E0,0E0,0E0,0E0,0E0],"parents":[2147483647,0,0,1,1,2,2,3,3,4,4,5,5,6,6],"right_children":[2,4,6,8,10,12,14,-1,-1,-1,-1,-1,-1,-1,-1],"split_conditions":[4.4115567E-1,2.820344E-1,6.43915E-1,1.7575713E-1,3.8009986E-1,5.6969905E-1,8.128107E-1,-8.638807E-3,-4.8515196E-3,-2.184353E-3,-1.6049904E-4,1.4291028E-3,3.7983132E-3,6.366785E-3,1.317993E-2],"split_indices":[8,2,8,8,8,0,6,0,0,0,0,0,0,0,0],"split_type":[0,0,0,0,0,0,0,0,0,0,0,0,0,0,0],"sum_hessian":[5.244E3,2.699E3,2.545E3,8.47E2,1.852E3,2.063E3,4.82E2,2.91E2,5.56E2,1.075E3,7.77E2,1.402E3,6.61E2,4.37E2,4.5E1],"tree_param":{"num_deleted":"0","num_feature":"10","num_nodes":"15","size_leaf_vector":"1"}},{"base_weights":[-8.200974E-4,-3.4495667E-2,2.3751236E-2,-6.930511E-2,-2.384367E-2,1.2843377E-2,5.6243237E-2,-9.629781E-3,-5.9635E-3,-3.6276958E-3,-1.6217002E-3,2.3285123E-4,2.371387E-3,4.9886E-3,1.0696137E-2],"categories":[],"categories_nodes":[],"categories_segments":[],"categories_sizes":[],"default_left":[0,0,0,0,0,0,0,0,0,0,0,0,0,0,0],"id":42,"left_children":[1,3,5,7,9,11,13,-1,-1,-1,-1,-1,-1,-1,-1],"loss_changes":[4.3408136E0,8.1890583E-1,1.074228E0,1.2946677E-1,1.602341E-1,2.5963834E-1,2.4035358E-1,0E0,0E0,0E0,0E0,0E0,0E0,0E0,0E0],"parents":[2147483647,0,0,1,1,2,2,3,3,4,4,5,5,6,6],"right_children":[2,4,6,8,10,12,14,-1,-1,-1,-1,-1,-1,-1,-1],"split_conditions":[4.0408304E-1,2.2167566E-1,6.0169107E-1,1.1611582E-1,3.1866404E-1,4.9613124E-1,7.705868E-1,-9.629781E-3,-5.9635E-3,-3.6276958E-3,-1.6217002E-3,2.3285123E-4,2.371387E-3,4.9886E-3,1.0696137E-2],"split_indices":[8,8,8,6,8,8,8,0,0,0,0,0,0,0,0],"split_type":[0,0,0,0,0,0,0,0,0,0,0,0,0,0,0],"sum_hessian":[5.244E3,2.212E3,3.032E3,5.17E2,1.695E3,2.271E3,7.61E2,1.34E2,3.83E2,6.43E2,1.052E3,1.155E3,1.116E3,6.78E2,8.3E1],"tree_param":{"num_deleted":"0","num_feature":"10","num_nodes":"15","size_leaf_vector":"1"}},{"base_weights":[4.41496E-4,-2.8301807E-2,2.7175356E-2,-5.988061E-2,-1.55705195E-2,1.8905727E-2,6.540251E-2,-8.068814E-3,-4.8512393E-3,-2.848202E-3,-7.782273E-4,8.445051E-4,2.8865687E-3,5.9097516E-3,1.2854437E-2],"categories":[],"categories_nodes":[],"categories_segments":[],"categories_sizes":[],"default_left":[0,0,0,0,0,0,0,0,0,0,0,0,0,0,0],"id":43,"left_children":[1,3,5,7,9,11,13,-1,-1,-1,-1,-1,-1,-1,-1],"loss_changes":[4.0311294E0,1.0154216E0,8.5798955E-1,1.6781712E-1,1.810843E-1,2.3272038E-1,1.8469E-1,0E0,0E0,0E0,0E0,0E0,0E0,0E0,0E0],"parents":[2147483647,0,0,1,1,2,2,3,3,4,4,5,5,6,6],"right_children":[2,4,6,8,10,12,14,-1,-1,-1,-1,-1,-1,-1,-1],"split_conditions":[4.3110636E-1,2.65175E-1,6.43915E-1,1.8417525E-1,3.3779147E-1,5.172432E-1,8.192921E-1,-8.068814E-3,-4.8512393E-3,-2.848202E-3,-7.782273E-4,8.445051E-4,2.8865687E-3,5.9097516E-3,1.2854437E-2],"split_indices":[8,2,8,0,8,8,8,0,0,0,0,0,0,0,0],"split_type":[0,0,0,0,0,0,0,0,0,0,0,0,0,0,0],"sum_hessian":[5.244E3,2.527E3,2.717E3,7.25E2,1.802E3,2.235E3,4.82E2,2.54E2,4.71E2,6.77E2,1.125E3,1.091E3,1.144E3,4.4E2,4.2E1],"tree_param":{"num_deleted":"0","num_feature":"10","num_nodes":"15","size_leaf_vector":"1"}},{"base_weights":[3.695682E-4,-2.6056647E-2,2.7593337E-2,-5.4975875E-2,-1.2057791E-2,1.9375492E-2,6.33E-2,-9.398773E-3,-4.7788713E-3,-2.5346752E-3,-5.901288E-4,1.1959982E-3,3.281064E-3,5.658505E-3,1.1907006E-2],"categories":[],"categories_nodes":[],"categories_segments":[],"categories_sizes":[],"default_left":[0,0,0,0,0,0,0,0,0,0,0,0,0,0,0],"id":44,"left_children":[1,3,5,7,9,11,13,-1,-1,-1,-1,-1,-1,-1,-1],"loss_changes":[3.7740831E0,1.0770106E0,7.570014E-1,2.388823E-1,1.4670569E-1,2.0902663E-1,1.7414248E-1,0E0,0E0,0E0,0E0,0E0,0E0,0E0,0E0],"parents":[2147483647,0,0,1,1,2,2,3,3,4,4,5,5,6,6],"right_children":[2,4,6,8,10,12,14,-1,-1,-1,-1,-1,-1,-1,-1],"split_conditions":[4.375244E-1,2.8729904E-1,6.43915E-1,1.1611582E-1,3.3779147E-1,5.536717E-1,7.0759076E-1,-9.398773E-3,-4.7788713E-3,-2.5346752E-3,-5.901288E-4,1.1959982E-3,3.281064E-3,5.658505E-3,1.1907006E-2],"split_indices":[8,2,8,8,8,0,1,0,0,0,0,0,0,0,0],"split_type":[0,0,0,0,0,0,0,0,0,0,0,0,0,0,0],"sum_hessian":[5.244E3,2.661E3,2.583E3,8.67E2,1.794E3,2.101E3,4.82E2,1.33E2,7.34E2,5.67E2,1.227E3,1.355E3,7.46E2,4.32E2,5E1],"tree_param":{"num_deleted":"0","num_feature":"10","num_nodes":"15","size_leaf_vector":"1"}},{"base_weights":[-7.385751E-4,-3.430067E-2,1.9362083E-2,-6.340653E-2,-2.4535913E-2,6.3519706E-3,4.2830452E-2,-9.667388E-3,-5.7016476E-3,-3.563227E-3,-1.7690798E-3,-1.783309E-4,1.4997447E-3,3.1220322E-3,6.588179E-3],"categories":[],"categories_nodes":[],"categories_segments":[],"categories_sizes":[],"default_left":[0,0,0,0,0,0,0,0,0,0,0,0,0,0,0],"id":45,"left_children":[1,3,5,7,9,11,13,-1,-1,-1,-1,-1,-1,-1,-1],"loss_changes":[3.539047E0,5.569203E-1,1.001503E0,9.9289894E-2,1.1125255E-1,1.485708E-1,3.11069E-1,0E0,0E0,0E0,0E0,0E0,0E0,0E0,0E0],"parents":[2147483647,0,0,1,1,2,2,3,3,4,4,5,5,6,6],"right_children":[2,4,6,8,10,12,14,-1,-1,-1,-1,-1,-1,-1,-1],"split_conditions":[3.9036027E-1,2.1016963E-1,5.5625814E-1,7.3891886E-2,3.2620507E-1,4.692346E-1,6.5992314E-1,-9.667388E-3,-5.7016476E-3,-3.563227E-3,-1.7690798E-3,-1.783309E-4,1.4997447E-3,3.1220322E-3,6.588179E-3],"split_indices":[8,8,8,8,0,8,8,0,0,0,0,0,0,0,0],"split_type":[0,0,0,0,0,0,0,0,0,0,0,0,0,0,0],"sum_hessian":[5.244E3,1.964E3,3.28E3,4.92E2,1.472E3,2.111E3,1.169E3,7.7E1,4.15E2,5.6E2,9.12E2,1.088E3,1.023E3,7.79E2,3.9E2],"tree_param":{"num_deleted":"0","num_feature":"10","num_nodes":"15","size_leaf_vector":"1"}},{"base_weights":[3.984784E-4,-2.4206644E-2,2.574617E-2,-5.0570756E-2,-1.1444382E-2,1.811554E-2,5.8901116E-2,-6.8858834E-3,-3.814032E-3,-2.0999096E-3,-3.6714398E-4,1.0026784E-3,2.7472924E-3,5.4720626E-3,1.4013176E-2],"categories":[],"categories_nodes":[],"categories_segments":[],"categories_sizes":[],"default_left":[0,0,0,0,0,0,0,0,0,0,0,0,0,0,0],"id":46,"left_children":[1,3,5,7,9,11,13,-1,-1,-1,-1,-1,-1,-1,-1],"loss_changes":[3.2718408E0,8.9509296E-1,6.526673E-1,1.94695E-1,1.3323437E-1,1.5882409E-1,1.5635097E-1,0E0,0E0,0E0,0E0,0E0,0E0,0E0,0E0],"parents":[2147483647,0,0,1,1,2,2,3,3,4,4,5,5,6,6],"right_children":[2,4,6,8,10,12,14,-1,-1,-1,-1,-1,-1,-1,-1],"split_conditions":[4.375244E-1,2.8729904E-1,6.43915E-1,1.878965E-1,3.5890344E-1,5.2759653E-1,8.5503465E-1,-6.8858834E-3,-3.814032E-3,-2.0999096E-3,-3.6714398E-4,1.0026784E-3,2.7472924E-3,5.4720626E-3,1.4013176E-2],"split_indices":[8,2,8,8,8,8,8,0,0,0,0,0,0,0,0],"split_type":[0,0,0,0,0,0,0,0,0,0,0,0,0,0,0],"sum_hessian":[5.244E3,2.661E3,2.583E3,8.67E2,1.794E3,2.101E3,4.82E2,3.49E2,5.18E2,8.04E2,9.9E2,1.128E3,9.73E2,4.6E2,2.2E1],"tree_param":{"num_deleted":"0","num_feature":"10","num_nodes":"15","size_leaf_vector":"1"}},{"base_weights":[3.3351133E-4,-2.20639E-2,2.6528526E-2,-4.8076835E-2,-8.77483E-3,1.8911107E-2,5.7006367E-2,-6.4454647E-3,-3.3384205E-3,-1.4731315E-3,-1.8016527E-4,1.2605431E-3,3.1396158E-3,5.124203E-3,1.1065363E-2],"categories":[],"categories_nodes":[],"categories_segments":[],"categories_sizes":[],"default_left":[0,0,0,0,0,0,0,0,0,0,0,0,0,0,0],"id":47,"left_children":[1,3,5,7,9,11,13,-1,-1,-1,-1,-1,-1,-1,-1],"loss_changes":[3.0778296E0,9.7718275E-1,5.6029105E-1,2.2789359E-1,7.776968E-2,1.5201902E-1,1.4369333E-1,0E0,0E0,0E0,0E0,0E0,0E0,0E0,0E0],"parents":[2147483647,0,0,1,1,2,2,3,3,4,4,5,5,6,6],"right_children":[2,4,6,8,10,12,14,-1,-1,-1,-1,-1,-1,-1,-1],"split_conditions":[4.534217E-1,2.917674E-1,6.43915E-1,2.3556697E-1,3.9036027E-1,5.6969905E-1,8.128107E-1,-6.4454647E-3,-3.3384205E-3,-1.4731315E-3,-1.8016527E-4,1.2605431E-3,3.1396158E-3,5.124203E-3,1.1065363E-2],"split_indices":[8,8,8,0,8,0,6,0,0,0,0,0,0,0,0],"split_type":[0,0,0,0,0,0,0,0,0,0,0,0,0,0,0],"sum_hessian":[5.244E3,2.827E3,2.417E3,9.55E2,1.872E3,1.935E3,4.82E2,4.5E2,5.05E2,1.009E3,8.63E2,1.287E3,6.48E2,4.37E2,4.5E1],"tree_param":{"num_deleted":"0","num_feature":"10","num_nodes":"15","size_leaf_vector":"1"}},{"base_weights":[-6.665626E-4,-2.5836233E-2,2.1103246E-2,-4.7498118E-2,-1.368346E-2,1.4929028E-2,5.9310477E-2,-6.9827884E-3,-3.8389617E-3,-1.9786395E-3,-6.4989773E-4,6.086055E-4,2.5366377E-3,5.410436E-3,1.4025594E-2],"categories":[],"categories_nodes":[],"categories_segments":[],"categories_sizes":[],"default_left":[0,0,0,0,0,0,0,0,0,0,0,0,0,0,0],"id":48,"left_children":[1,3,5,7,9,11,13,-1,-1,-1,-1,-1,-1,-1,-1],"loss_changes":[2.874485E0,6.3984215E-1,6.6270065E-1,1.750828E-1,6.8271816E-2,2.2348171E-1,1.5718341E-1,0E0,0E0,0E0,0E0,0E0,0E0,0E0,0E0],"parents":[2147483647,0,0,1,1,2,2,3,3,4,4,5,5,6,6],"right_children":[2,4,6,8,10,12,14,-1,-1,-1,-1,-1,-1,-1,-1],"split_conditions":[4.207404E-1,2.8501156E-1,6.5992314E-1,1.8417525E-1,3.6945942E-1,5.212122E-1,8.5503465E-1,-6.9827884E-3,-3.8389617E-3,-1.9786395E-3,-6.4989773E-4,6.086055E-4,2.5366377E-3,5.410436E-3,1.4025594E-2],"split_indices":[8,6,8,0,8,8,8,0,0,0,0,0,0,0,0],"split_type":[0,0,0,0,0,0,0,0,0,0,0,0,0,0,0],"sum_hessian":[5.244E3,2.432E3,2.812E3,8.73E2,1.559E3,2.422E3,3.9E2,2.51E2,6.22E2,8.42E2,7.17E2,1.312E3,1.11E3,3.68E2,2.2E1],"tree_param":{"num_deleted":"0","num_feature":"10","num_nodes":"15","size_leaf_vector":"1"}},{"base_weights":[3.6054922E-4,-2.3611901E-2,2.1495385E-2,-4.870784E-2,-1.3125983E-2,1.3652891E-2,4.8392516E-2,-6.473267E-3,-3.7663735E-3,-2.3222324E-3,-6.643521E-4,5.6440866E-4,2.142271E-3,4.1871914E-3,9.020033E-3],"categories":[],"categories_nodes":[],"categories_segments":[],"categories_sizes":[],"default_left":[0,0,0,0,0,0,0,0,0,0,0,0,0,0,0],"id":49,"left_children":[1,3,5,7,9,11,13,-1,-1,-1,-1,-1,-1,-1,-1],"loss_changes":[2.657907E0,6.4619315E-1,5.874417E-1,1.2569547E-1,1.1339998E-1,1.3428932E-1,1.6769624E-1,0E0,0E0,0E0,0E0,0E0,0E0,0E0,0E0],"parents":[2147483647,0,0,1,1,2,2,3,3,4,4,5,5,6,6],"right_children":[2,4,6,8,10,12,14,-1,-1,-1,-1,-1,-1,-1,-1],"split_conditions":[4.2223933E-1,2.65175E-1,6.2280303E-1,1.7575713E-1,3.3779147E-1,5.066872E-1,7.705868E-1,-6.473267E-3,-3.7663735E-3,-2.3222324E-3,-6.643521E-4,5.6440866E-4,2.142271E-3,4.1871914E-3,9.020033E-3],"split_indices":[8,2,8,6,8,8,8,0,0,0,0,0,0,0,0],"split_type":[0,0,0,0,0,0,0,0,0,0,0,0,0,0,0],"sum_hessian":[5.244E3,2.457E3,2.787E3,7.23E2,1.734E3,2.159E3,6.28E2,2.93E2,4.3E2,6.77E2,1.057E3,1.064E3,1.095E3,5.45E2,8.3E1],"tree_param":{"num_deleted":"0","num_feature":"10","num_nodes":"15","size_leaf_vector":"1"}},{"base_weights":[3.0190428E-4,-1.8989632E-2,2.5050009E-2,-4.6141118E-2,-8.505439E-3,1.8879442E-2,5.5097044E-2,-6.036737E-3,-3.101707E-3,-2.0222228E-3,-4.4885915E-4,1.1688903E-3,2.8304493E-3,4.8368196E-3,1.0575957E-2],"categories":[],"categories_nodes":[],"categories_segments":[],"categories_sizes":[],"default_left":[0,0,0,0,0,0,0,0,0,0,0,0,0,0,0],"id":50,"left_children":[1,3,5,7,9,11,13,-1,-1,-1,-1,-1,-1,-1,-1],"loss_changes":[2.5045903E0,8.387892E-1,4.250257E-1,1.7477286E-1,1.0006264E-1,1.2897652E-1,1.2817669E-1,0E0,0E0,0E0,0E0,0E0,0E0,0E0,0E0],"parents":[2147483647,0,0,1,1,2,2,3,3,4,4,5,5,6,6],"right_children":[2,4,6,8,10,12,14,-1,-1,-1,-1,-1,-1,-1,-1],"split_conditions":[4.5696855E-1,2.709369E-1,6.5992314E-1,2.098336E-1,3.3779147E-1,5.4891115E-1,6.993399E-1,-6.036737E-3,-3.101707E-3,-2.0222228E-3,-4.4885915E-4,1.1688903E-3,2.8304493E-3,4.8368196E-3,1.0575957E-2],"split_indices":[8,8,8,2,6,8,1,0,0,0,0,0,0,0,0],"split_type":[0,0,0,0,0,0,0,0,0,0,0,0,0,0,0],"sum_hessian":[5.244E3,2.947E3,2.297E3,8.2E2,2.127E3,1.907E3,3.9E2,4.21E2,3.99E2,5.42E2,1.585E3,1.083E3,8.24E2,3.46E2,4.4E1],"tree_param":{"num_deleted":"0","num_feature":"10","num_nodes":"15","size_leaf_vector":"1"}},{"base_weights":[-5.981672E-4,-2.0145833E-2,2.2299388E-2,-4.2701412E-2,-1.0028782E-2,1.6280616E-2,5.3429145E-2,-6.2872805E-3,-3.4499988E-3,-1.6983973E-3,-3.0917473E-4,9.978076E-4,2.5131244E-3,4.8708594E-3,1.2684019E-2],"categories":[],"categories_nodes":[],"categories_segments":[],"categories_sizes":[],"default_left":[0,0,0,0,0,0,0,0,0,0,0,0,0,0,0],"id":51,"left_children":[1,3,5,7,9,11,13,-1,-1,-1,-1,-1,-1,-1,-1],"loss_changes":[2.3480785E0,6.453662E-1,4.5179892E-1,1.4275146E-1,9.4273105E-2,1.1276239E-1,1.2931919E-1,0E0,0E0,0E0,0E0,0E0,0E0,0E0,0E0],"parents":[2147483647,0,0,1,1,2,2,3,3,4,4,5,5,6,6],"right_children":[2,4,6,8,10,12,14,-1,-1,-1,-1,-1,-1,-1,-1],"split_conditions":[4.539073E-1,2.8501156E-1,6.5992314E-1,1.8417525E-1,3.7649676E-1,5.45871E-1,8.5503465E-1,-6.2872805E-3,-3.4499988E-3,-1.6983973E-3,-3.0917473E-4,9.978076E-4,2.5131244E-3,4.8708594E-3,1.2684019E-2],"split_indices":[8,6,8,0,8,8,8,0,0,0,0,0,0,0,0],"split_type":[0,0,0,0,0,0,0,0,0,0,0,0,0,0,0],"sum_hessian":[5.244E3,2.829E3,2.415E3,8.75E2,1.954E3,2.025E3,3.9E2,2.51E2,6.24E2,9.75E2,9.79E2,1.184E3,8.41E2,3.68E2,2.2E1],"tree_param":{"num_deleted":"0","num_feature":"10","num_nodes":"15","size_leaf_vector":"1"}},{"base_weights":[3.2501636E-4,-2.5934873E-2,1.6052037E-2,-4.9844906E-2,-1.7914793E-2,7.433391E-3,3.760452E-2,-7.1604266E-3,-4.28836E-3,-2.7718197E-3,-1.2211087E-3,7.495101E-6,1.4382967E-3,3.1055724E-3,6.7396E-3],"categories":[],"categories_nodes":[],"categories_segments":[],"categories_sizes":[],"default_left":[0,0,0,0,0,0,0,0,0,0,0,0,0,0,0],"id":52,"left_children":[1,3,5,7,9,11,13,-1,-1,-1,-1,-1,-1,-1,-1],"loss_changes":[2.1665483E0,3.7591624E-1,6.091769E-1,7.16058E-2,8.202538E-2,1.19917616E-1,1.8071425E-1,0E0,0E0,0E0,0E0,0E0,0E0,0E0,0E0],"parents":[2147483647,0,0,1,1,2,2,3,3,4,4,5,5,6,6],"right_children":[2,4,6,8,10,12,14,-1,-1,-1,-1,-1,-1,-1,-1],"split_conditions":[3.9036027E-1,2.1016963E-1,5.805791E-1,9.500385E-2,3.0612352E-1,4.7501928E-1,7.2836286E-1,-7.1604266E-3,-4.28836E-3,-2.7718197E-3,-1.2211087E-3,7.495101E-6,1.4382967E-3,3.1055724E-3,6.7396E-3],"split_indices":[8,8,8,8,8,8,8,0,0,0,0,0,0,0,0],"split_type":[0,0,0,0,0,0,0,0,0,0,0,0,0,0,0],"sum_hessian":[5.244E3,1.964E3,3.28E3,4.92E2,1.472E3,2.344E3,9.36E2,1.17E2,3.75E2,5.4E2,9.32E2,1.139E3,1.205E3,7.69E2,1.67E2],"tree_param":{"num_deleted":"0","num_feature":"10","num_nodes":"15","size_leaf_vector":"1"}},{"base_weights":[2.7320397E-4,-2.5266549E-2,1.5568949E-2,-5.006665E-2,-1.694902E-2,5.15662E-3,3.326995E-2,-7.5124367E-3,-4.206964E-3,-3.0538342E-3,-1.1924036E-3,-1.2432553E-3,7.7277864E-4,2.819862E-3,6.470736E-3],"categories":[],"categories_nodes":[],"categories_segments":[],"categories_sizes":[],"default_left":[0,0,0,0,0,0,0,0,0,0,0,0,0,0,0],"id":53,"left_children":[1,3,5,7,9,11,13,-1,-1,-1,-1,-1,-1,-1,-1],"loss_changes":[2.0493503E0,4.0448284E-1,6.0454494E-1,9.563017E-2,1.00221306E-1,9.357552E-2,1.9188225E-1,0E0,0E0,0E0,0E0,0E0,0E0,0E0,0E0],"parents":[2147483647,0,0,1,1,2,2,3,3,4,4,5,5,6,6],"right_children":[2,4,6,8,10,12,14,-1,-1,-1,-1,-1,-1,-1,-1],"split_conditions":[3.9036027E-1,2.1016963E-1,5.4891115E-1,9.500385E-2,2.9331616E-1,3.7858248E-1,7.2836286E-1,-7.5124367E-3,-4.206964E-3,-3.0538342E-3,-1.1924036E-3,-1.2432553E-3,7.7277864E-4,2.819862E-3,6.470736E-3],"split_indices":[8,8,8,8,0,0,8,0,0,0,0,0,0,0,0],"split_type":[0,0,0,0,0,0,0,0,0,0,0,0,0,0,0],"sum_hessian":[5.244E3,1.964E3,3.28E3,4.92E2,1.472E3,2.066E3,1.214E3,1.17E2,3.75E2,3.96E2,1.076E3,2.63E2,1.803E3,1.047E3,1.67E2],"tree_param":{"num_deleted":"0","num_feature":"10","num_nodes":"15","size_leaf_vector":"1"}},{"base_weights":[-5.3656765E-4,-1.6726911E-2,2.2003174E-2,-3.603131E-2,-6.8515157E-3,1.6324837E-2,4.813115E-2,-5.4826993E-3,-2.8007755E-3,-1.2970599E-3,-1.6027039E-4,1.0796986E-3,2.2621115E-3,4.3850965E-3,1.1470762E-2],"categories":[],"categories_nodes":[],"categories_segments":[],"categories_sizes":[],"default_left":[0,0,0,0,0,0,0,0,0,0,0,0,0,0,0],"id":54,"left_children":[1,3,5,7,9,11,13,-1,-1,-1,-1,-1,-1,-1,-1],"loss_changes":[1.9144057E0,5.8177274E-1,3.245753E-1,1.5424919E-1,6.4889535E-2,6.2509E-2,1.063894E-1,0E0,0E0,0E0,0E0,0E0,0E0,0E0,0E0],"parents":[2147483647,0,0,1,1,2,2,3,3,4,4,5,5,6,6],"right_children":[2,4,6,8,10,12,14,-1,-1,-1,-1,-1,-1,-1,-1],"split_conditions":[4.692346E-1,3.0612352E-1,6.5992314E-1,1.8802294E-1,3.9036027E-1,5.45871E-1,8.5503465E-1,-5.4826993E-3,-2.8007755E-3,-1.2970599E-3,-1.6027039E-4,1.0796986E-3,2.2621115E-3,4.3850965E-3,1.1470762E-2],"split_indices":[8,8,8,2,8,8,8,0,0,0,0,0,0,0,0],"split_type":[0,0,0,0,0,0,0,0,0,0,0,0,0,0,0],"sum_hessian":[5.244E3,3.052E3,2.192E3,1.032E3,2.02E3,1.802E3,3.9E2,3.07E2,7.25E2,9.32E2,1.088E3,9.61E2,8.41E2,3.68E2,2.2E1],"tree_param":{"num_deleted":"0","num_feature":"10","num_nodes":"15","size_leaf_vector":"1"}},{"base_weights":[2.9172478E-4,-1.7752234E-2,1.888024E-2,-3.7175167E-2,-7.826884E-3,1.3787009E-2,4.741137E-2,-5.198335E-3,-2.8091657E-3,-1.3198457E-3,1.2075771E-5,8.517715E-4,2.4213793E-3,4.327864E-3,1.116534E-2],"categories":[],"categories_nodes":[],"categories_segments":[],"categories_sizes":[],"default_left":[0,0,0,0,0,0,0,0,0,0,0,0,0,0,0],"id":55,"left_children":[1,3,5,7,9,11,13,-1,-1,-1,-1,-1,-1,-1,-1],"loss_changes":[1.759563E0,5.128878E-1,3.7484205E-1,1.19598866E-1,7.526642E-2,1.20336026E-1,9.897637E-2,0E0,0E0,0E0,0E0,0E0,0E0,0E0,0E0],"parents":[2147483647,0,0,1,1,2,2,3,3,4,4,5,5,6,6],"right_children":[2,4,6,8,10,12,14,-1,-1,-1,-1,-1,-1,-1,-1],"split_conditions":[4.375244E-1,2.992848E-1,6.5992314E-1,1.878965E-1,3.8009986E-1,5.6969905E-1,8.5503465E-1,-5.198335E-3,-2.8091657E-3,-1.3198457E-3,1.2075771E-5,8.517715E-4,2.4213793E-3,4.327864E-3,1.116534E-2],"split_indices":[8,0,8,8,8,0,8,0,0,0,0,0,0,0,0],"split_type":[0,0,0,0,0,0,0,0,0,0,0,0,0,0,0],"sum_hessian":[5.244E3,2.661E3,2.583E3,8.99E2,1.762E3,2.193E3,3.9E2,3.4E2,5.59E2,1.051E3,7.11E2,1.458E3,7.35E2,3.68E2,2.2E1],"tree_param":{"num_deleted":"0","num_feature":"10","num_nodes":"15","size_leaf_vector":"1"}},{"base_weights":[2.4452628E-4,-1.5536097E-2,2.0488665E-2,-3.668077E-2,-6.344594E-3,1.4677443E-2,4.2295482E-2,-3.882245E-3,4.2483564E-3,-1.2315515E-3,1.2226798E-5,4.9730233E-4,1.9840747E-3,3.704646E-3,8.60314E-3],"categories":[],"categories_nodes":[],"categories_segments":[],"categories_sizes":[],"default_left":[0,0,0,0,0,0,0,0,0,0,0,0,0,0,0],"id":56,"left_children":[1,3,5,7,9,11,13,-1,-1,-1,-1,-1,-1,-1,-1],"loss_changes":[1.6759127E0,5.727151E-1,2.905916E-1,1.530528E-1,7.93901E-2,9.0895385E-2,1.0769558E-1,0E0,0E0,0E0,0E0,0E0,0E0,0E0,0E0],"parents":[2147483647,0,0,1,1,2,2,3,3,4,4,5,5,6,6],"right_children":[2,4,6,8,10,12,14,-1,-1,-1,-1,-1,-1,-1,-1],"split_conditions":[4.5696855E-1,2.9331616E-1,6.43915E-1,4.0706965E-1,3.8009986E-1,4.978871E-1,7.0759076E-1,-3.882245E-3,4.2483564E-3,-1.2315515E-3,1.2226798E-5,4.9730233E-4,1.9840747E-3,3.704646E-3,8.60314E-3],"split_indices":[8,0,8,2,8,0,1,0,0,0,0,0,0,0,0],"split_type":[0,0,0,0,0,0,0,0,0,0,0,0,0,0,0],"sum_hessian":[5.244E3,2.947E3,2.297E3,8.92E2,2.055E3,1.815E3,4.82E2,8.69E2,2.3E1,1.068E3,9.87E2,6.31E2,1.184E3,4.32E2,5E1],"tree_param":{"num_deleted":"0","num_feature":"10","num_nodes":"15","size_leaf_vector":"1"}},{"base_weights":[-4.8110928E-4,-1.505741E-2,1.9811608E-2,-3.483207E-2,-7.097052E-3,1.6051063E-2,5.2151155E-2,-6.310791E-3,-3.0390199E-3,-1.3640225E-3,-1.7826432E-4,1.1964686E-3,2.704336E-3,4.6138563E-3,1.0373562E-2],"categories":[],"categories_nodes":[],"categories_segments":[],"categories_sizes":[],"default_left":[0,0,0,0,0,0,0,0,0,0,0,0,0,0,0],"id":57,"left_children":[1,3,5,7,9,11,13,-1,-1,-1,-1,-1,-1,-1,-1],"loss_changes":[1.5517311E0,4.803359E-1,2.6586306E-1,1.0810578E-1,7.5711474E-2,8.798653E-2,6.592935E-2,0E0,0E0,0E0,0E0,0E0,0E0,0E0,0E0],"parents":[2147483647,0,0,1,1,2,2,3,3,4,4,5,5,6,6],"right_children":[2,4,6,8,10,12,14,-1,-1,-1,-1,-1,-1,-1,-1],"split_conditions":[4.692346E-1,2.8501156E-1,7.019043E-1,9.500385E-2,3.7649676E-1,6.0169107E-1,8.5503465E-1,-6.310791E-3,-3.0390199E-3,-1.3640225E-3,-1.7826432E-4,1.1964686E-3,2.704336E-3,4.6138563E-3,1.0373562E-2],"split_indices":[8,6,8,8,8,6,8,0,0,0,0,0,0,0,0],"split_type":[0,0,0,0,0,0,0,0,0,0,0,0,0,0,0],"sum_hessian":[5.244E3,3.052E3,2.192E3,8.75E2,2.177E3,1.965E3,2.27E2,1.17E2,7.58E2,9.75E2,1.202E3,1.434E3,5.31E2,2.05E2,2.2E1],"tree_param":{"num_deleted":"0","num_feature":"10","num_nodes":"15","size_leaf_vector":"1"}},{"base_weights":[2.643559E-4,-1.43682435E-2,1.9035738E-2,-3.4402367E-2,-6.3686864E-3,1.4666639E-2,4.5898803E-2,-5.118407E-3,-2.733795E-3,-1.5804147E-3,-3.308381E-4,9.5300155E-4,2.2939146E-3,3.9648414E-3,9.584059E-3],"categories":[],"categories_nodes":[],"categories_segments":[],"categories_sizes":[],"default_left":[0,0,0,0,0,0,0,0,0,0,0,0,0,0,0],"id":58,"left_children":[1,3,5,7,9,11,13,-1,-1,-1,-1,-1,-1,-1,-1],"loss_changes":[1.4409393E0,4.7223943E-1,2.6903713E-1,9.8303735E-2,6.081704E-2,8.3832085E-2,9.640199E-2,0E0,0E0,0E0,0E0,0E0,0E0,0E0,0E0],"parents":[2147483647,0,0,1,1,2,2,3,3,4,4,5,5,6,6],"right_children":[2,4,6,8,10,12,14,-1,-1,-1,-1,-1,-1,-1,-1],"split_conditions":[4.5696855E-1,2.7445558E-1,6.861389E-1,1.8417525E-1,3.3779147E-1,5.6969905E-1,7.640264E-1,-5.118407E-3,-2.733795E-3,-1.5804147E-3,-3.308381E-4,9.5300155E-4,2.2939146E-3,3.9648414E-3,9.584059E-3],"split_indices":[8,6,8,0,4,0,1,0,0,0,0,0,0,0,0],"split_type":[0,0,0,0,0,0,0,0,0,0,0,0,0,0,0],"sum_hessian":[5.244E3,2.947E3,2.297E3,8.4E2,2.107E3,1.977E3,3.2E2,2.47E2,5.93E2,5.15E2,1.592E3,1.221E3,7.56E2,2.86E2,3.4E1],"tree_param":{"num_deleted":"0","num_feature":"10","num_nodes":"15","size_leaf_vector":"1"}},{"base_weights":[2.227343E-4,-1.2037989E-2,2.1531705E-2,-3.234255E-2,-3.8598005E-3,1.7785724E-2,4.9187094E-2,-6.2336014E-3,-2.7334688E-3,-4.6492027E-4,3.2203344E-3,1.0746986E-3,2.5725148E-3,4.1313632E-3,9.97748E-3],"categories":[],"categories_nodes":[],"categories_segments":[],"categories_sizes":[],"default_left":[0,0,0,0,0,0,0,0,0,0,0,0,0,0,0],"id":59,"left_children":[1,3,5,7,9,11,13,-1,-1,-1,-1,-1,-1,-1,-1],"loss_changes":[1.3705856E0,5.528368E-1,1.9761604E-1,1.4189017E-1,6.776202E-2,9.411085E-2,8.6690366E-2,0E0,0E0,0E0,0E0,0E0,0E0,0E0,0E0],"parents":[2147483647,0,0,1,1,2,2,3,3,4,4,5,5,6,6],"right_children":[2,4,6,8,10,12,14,-1,-1,-1,-1,-1,-1,-1,-1],"split_conditions":[4.9222553E-1,2.917674E-1,7.019043E-1,1.1611582E-1,5.6761634E-1,5.6969905E-1,7.640264E-1,-6.2336014E-3,-2.7334688E-3,-4.6492027E-4,3.2203344E-3,1.0746986E-3,2.5725148E-3,4.1313632E-3,9.97748E-3],"split_indices":[8,8,8,6,4,0,1,0,0,0,0,0,0,0,0],"split_type":[0,0,0,0,0,0,0,0,0,0,0,0,0,0,0],"sum_hessian":[5.244E3,3.329E3,1.915E3,9.55E2,2.374E3,1.688E3,2.27E2,1.35E2,8.2E2,2.324E3,5E1,8.96E2,7.92E2,1.98E2,2.9E1],"tree_param":{"num_deleted":"0","num_feature":"10","num_nodes":"15","size_leaf_vector":"1"}},{"base_weights":[-4.314659E-4,-1.5490566E-2,1.5538684E-2,-3.2389287E-2,-7.3157367E-3,1.1055261E-2,3.8534157E-2,-5.6584002E-3,-2.800578E-3,-1.2983242E-3,-2.1628123E-4,5.286948E-4,1.7084217E-3,3.3840039E-3,7.835678E-3],"categories":[],"categories_nodes":[],"categories_segments":[],"categories_sizes":[],"default_left":[0,0,0,0,0,0,0,0,0,0,0,0,0,0,0],"id":60,"left_children":[1,3,5,7,9,11,13,-1,-1,-1,-1,-1,-1,-1,-1],"loss_changes":[1.2616428E0,3.727523E-1,2.6206273E-1,9.174603E-2,5.315283E-2,7.405403E-2,7.4925244E-2,0E0,0E0,0E0,0E0,0E0,0E0,0E0,0E0],"parents":[2147483647,0,0,1,1,2,2,3,3,4,4,5,5,6,6],"right_children":[2,4,6,8,10,12,14,-1,-1,-1,-1,-1,-1,-1,-1],"split_conditions":[4.4115567E-1,2.9331616E-1,6.5095234E-1,1.1611582E-1,3.6418143E-1,5.2759653E-1,8.192921E-1,-5.6584002E-3,-2.800578E-3,-1.2983242E-3,-2.1628123E-4,5.286948E-4,1.7084217E-3,3.3840039E-3,7.835678E-3],"split_indices":[8,0,8,6,8,8,8,0,0,0,0,0,0,0,0],"split_type":[0,0,0,0,0,0,0,0,0,0,0,0,0,0,0],"sum_hessian":[5.244E3,2.699E3,2.545E3,8.79E2,1.82E3,2.131E3,4.14E2,1.33E2,7.46E2,8.66E2,9.54E2,1.09E3,1.041E3,3.72E2,4.2E1],"tree_param":{"num_deleted":"0","num_feature":"10","num_nodes":"15","size_leaf_vector":"1"}},{"base_weights":[2.392598E-4,-2.0059217E-2,1.1250859E-2,-4.2850573E-2,-1.5338872E-2,3.4022783E-3,2.5369044E-2,-4.413687E-3,6.8514957E-3,-2.399243E-3,-1.0688582E-3,-1.6297599E-3,4.912996E-4,2.2536516E-3,6.3238735E-3],"categories":[],"categories_nodes":[],"categories_segments":[],"categories_sizes":[],"default_left":[0,0,0,0,0,0,0,0,0,0,0,0,0,0,0],"id":61,"left_children":[1,3,5,7,9,11,13,-1,-1,-1,-1,-1,-1,-1,-1],"loss_changes":[1.1725811E0,1.9783354E-1,3.7677073E-1,4.829079E-2,6.1313123E-2,6.5167286E-2,1.2890422E-1,0E0,0E0,0E0,0E0,0E0,0E0,0E0,0E0],"parents":[2147483647,0,0,1,1,2,2,3,3,4,4,5,5,6,6],"right_children":[2,4,6,8,10,12,14,-1,-1,-1,-1,-1,-1,-1,-1],"split_conditions":[3.7649676E-1,1.8802294E-1,5.4891115E-1,3.3796036E-1,2.992848E-1,3.3693838E-1,7.705868E-1,-4.413687E-3,6.8514957E-3,-2.399243E-3,-1.0688582E-3,-1.6297599E-3,4.912996E-4,2.2536516E-3,6.3238735E-3],"split_indices":[8,2,8,8,0,0,8,0,0,0,0,0,0,0,0],"split_type":[0,0,0,0,0,0,0,0,0,0,0,0,0,0,0],"sum_hessian":[5.244E3,1.844E3,3.4E3,3.15E2,1.529E3,2.186E3,1.214E3,3.12E2,3E0,5.33E2,9.96E2,1.55E2,2.031E3,1.131E3,8.3E1],"tree_param":{"num_deleted":"0","num_feature":"10","num_nodes":"15","size_leaf_vector":"1"}},{"base_weights":[2.0265997E-4,-2.370593E-2,9.213823E-3,-3.902323E-2,-1.5631862E-2,7.171636E-4,2.299628E-2,-5.9126443E-3,-3.1850652E-3,-1.6424932E-3,5.2983835E-3,-4.1363155E-3,1.5351831E-4,2.0879945E-3,6.7155003E-3],"categories":[],"categories_nodes":[],"categories_segments":[],"categories_sizes":[],"default_left":[0,0,0,0,0,0,0,0,0,0,0,0,0,0,0],"id":62,"left_children":[1,3,5,7,9,11,13,-1,-1,-1,-1,-1,-1,-1,-1],"loss_changes":[1.1302233E0,1.7698425E-1,4.461529E-1,6.94918E-2,5.2131087E-2,8.123179E-2,1.3438743E-1,0E0,0E0,0E0,0E0,0E0,0E0,0E0,0E0],"parents":[2147483647,0,0,1,1,2,2,3,3,4,4,5,5,6,6],"right_children":[2,4,6,8,10,12,14,-1,-1,-1,-1,-1,-1,-1,-1],"split_conditions":[3.4698573E-1,2.3556697E-1,5.2759653E-1,1.1611582E-1,9.049505E-1,-8.561056E-1,7.811428E-1,-5.9126443E-3,-3.1850652E-3,-1.6424932E-3,5.2983835E-3,-4.1363155E-3,1.5351831E-4,2.0879945E-3,6.7155003E-3],"split_indices":[4,0,8,6,3,1,8,0,0,0,0,0,0,0,0],"split_type":[0,0,0,0,0,0,0,0,0,0,0,0,0,0,0],"sum_hessian":[5.244E3,1.435E3,3.809E3,4.94E2,9.41E2,2.357E3,1.452E3,1.28E2,3.66E2,9.31E2,1E1,4.4E1,2.313E3,1.387E3,6.5E1],"tree_param":{"num_deleted":"0","num_feature":"10","num_nodes":"15","size_leaf_vector":"1"}},{"base_weights":[-3.8765743E-4,-1.201631E-2,1.6463755E-2,-2.9172923E-2,-5.6586685E-3,1.3318067E-2,4.2812556E-2,-4.1704145E-3,-2.204791E-3,-1.2728634E-3,-1.6940368E-4,9.922603E-4,2.2126348E-3,3.7747317E-3,8.63181E-3],"categories":[],"categories_nodes":[],"categories_segments":[],"categories_sizes":[],"default_left":[0,0,0,0,0,0,0,0,0,0,0,0,0,0,0],"id":63,"left_children":[1,3,5,7,9,11,13,-1,-1,-1,-1,-1,-1,-1,-1],"loss_changes":[1.0280039E0,3.3840564E-1,1.7696965E-1,7.39907E-2,6.349398E-2,5.705467E-2,4.698521E-2,0E0,0E0,0E0,0E0,0E0,0E0,0E0,0E0],"parents":[2147483647,0,0,1,1,2,2,3,3,4,4,5,5,6,6],"right_children":[2,4,6,8,10,12,14,-1,-1,-1,-1,-1,-1,-1,-1],"split_conditions":[4.7501928E-1,2.720488E-1,7.019043E-1,1.7575713E-1,3.5890344E-1,6.0169107E-1,8.5503465E-1,-4.1704145E-3,-2.204791E-3,-1.2728634E-3,-1.6940368E-4,9.922603E-4,2.2126348E-3,3.7747317E-3,8.63181E-3],"split_indices":[8,4,8,6,8,6,8,0,0,0,0,0,0,0,0],"split_type":[0,0,0,0,0,0,0,0,0,0,0,0,0,0,0],"sum_hessian":[5.244E3,3.103E3,2.141E3,8.38E2,2.265E3,1.914E3,2.27E2,3.02E2,5.36E2,8.13E2,1.452E3,1.383E3,5.31E2,2.05E2,2.2E1],"tree_param":{"num_deleted":"0","num_feature":"10","num_nodes":"15","size_leaf_vector":"1"}},{"base_weights":[2.1655693E-4,-1.1776438E-2,1.5601733E-2,-2.6834838E-2,-4.5473324E-3,1.258341E-2,4.294973E-2,-4.300323E-3,-2.13854E-3,-5.119432E-4,2.6694825E-3,7.471076E-4,2.0157136E-3,3.6043928E-3,8.732655E-3],"categories":[],"categories_nodes":[],"categories_segments":[],"categories_sizes":[],"default_left":[0,0,0,0,0,0,0,0,0,0,0,0,0,0,0],"id":64,"left_children":[1,3,5,7,9,11,13,-1,-1,-1,-1,-1,-1,-1,-1],"loss_changes":[9.679614E-1,3.2079366E-1,1.8914813E-1,8.331221E-2,3.5758775E-2,8.0037326E-2,6.672475E-2,0E0,0E0,0E0,0E0,0E0,0E0,0E0,0E0],"parents":[2147483647,0,0,1,1,2,2,3,3,4,4,5,5,6,6],"right_children":[2,4,6,8,10,12,14,-1,-1,-1,-1,-1,-1,-1,-1],"split_conditions":[4.5696855E-1,2.917674E-1,7.019043E-1,1.671315E-1,5.627395E-1,5.6969905E-1,7.640264E-1,-4.300323E-3,-2.13854E-3,-5.119432E-4,2.6694825E-3,7.471076E-4,2.0157136E-3,3.6043928E-3,8.732655E-3],"split_indices":[8,8,8,2,4,0,1,0,0,0,0,0,0,0,0],"split_type":[0,0,0,0,0,0,0,0,0,0,0,0,0,0,0],"sum_hessian":[5.244E3,2.947E3,2.297E3,9.55E2,1.992E3,2.07E3,2.27E2,2.39E2,7.16E2,1.957E3,3.5E1,1.237E3,8.33E2,1.98E2,2.9E1],"tree_param":{"num_deleted":"0","num_feature":"10","num_nodes":"15","size_leaf_vector":"1"}},{"base_weights":[1.822737E-4,-1.5237466E-2,1.1789521E-2,-3.4070082E-2,-9.510248E-3,6.4434567E-3,2.7433388E-2,-4.494641E-3,-2.3865753E-3,-5.743698E-5,-1.3416897E-3,4.4251407E-5,1.2068957E-3,2.472683E-3,7.1037523E-3],"categories":[],"categories_nodes":[],"categories_segments":[],"categories_sizes":[],"default_left":[0,0,0,0,0,0,0,0,0,0,0,0,0,0,0],"id":65,"left_children":[1,3,5,7,9,11,13,-1,-1,-1,-1,-1,-1,-1,-1],"loss_changes":[9.389336E-1,2.4268115E-1,2.5013718E-1,5.719471E-2,6.0350522E-2,7.534319E-2,8.8172555E-2,0E0,0E0,0E0,0E0,0E0,0E0,0E0,0E0],"parents":[2147483647,0,0,1,1,2,2,3,3,4,4,5,5,6,6],"right_children":[2,4,6,8,10,12,14,-1,-1,-1,-1,-1,-1,-1,-1],"split_conditions":[4.1053277E-1,2.4556701E-1,6.0169107E-1,1.7575713E-1,-1.5478548E-1,4.978871E-1,8.1476605E-1,-4.494641E-3,-2.3865753E-3,-5.743698E-5,-1.3416897E-3,4.4251407E-5,1.2068957E-3,2.472683E-3,7.1037523E-3],"split_indices":[8,0,8,8,1,0,2,0,0,0,0,0,0,0,0],"split_type":[0,0,0,0,0,0,0,0,0,0,0,0,0,0,0],"sum_hessian":[5.244E3,2.252E3,2.992E3,5.24E2,1.728E3,2.231E3,7.61E2,2.52E2,2.72E2,5.26E2,1.202E3,1.08E3,1.151E3,7.18E2,4.3E1],"tree_param":{"num_deleted":"0","num_feature":"10","num_nodes":"15","size_leaf_vector":"1"}},{"base_weights":[-3.47404E-4,-1.3919758E-2,1.1391623E-2,-2.8429702E-2,-7.5360746E-3,5.3476384E-3,2.3486787E-2,-5.5595846E-3,-2.5341676E-3,-8.491072E-4,1.4700231E-3,1.17623356E-4,9.4867975E-4,2.0945042E-3,5.6712795E-3],"categories":[],"categories_nodes":[],"categories_segments":[],"categories_sizes":[],"default_left":[0,0,0,0,0,0,0,0,0,0,0,0,0,0,0],"id":66,"left_children":[1,3,5,7,9,11,13,-1,-1,-1,-1,-1,-1,-1,-1],"loss_changes":[8.358247E-1,2.2514695E-1,2.0551309E-1,6.0921192E-2,3.6034226E-2,3.2397322E-2,7.794374E-2,0E0,0E0,0E0,0E0,0E0,0E0,0E0,0E0],"parents":[2147483647,0,0,1,1,2,2,3,3,4,4,5,5,6,6],"right_children":[2,4,6,8,10,12,14,-1,-1,-1,-1,-1,-1,-1,-1],"split_conditions":[4.207404E-1,2.756858E-1,5.805791E-1,7.3891886E-2,4.5660964E-1,4.9613124E-1,7.811428E-1,-5.5595846E-3,-2.5341676E-3,-8.491072E-4,1.4700231E-3,1.17623356E-4,9.4867975E-4,2.0945042E-3,5.6712795E-3],"split_indices":[8,0,8,8,6,8,8,0,0,0,0,0,0,0,0],"split_type":[0,0,0,0,0,0,0,0,0,0,0,0,0,0,0],"sum_hessian":[5.244E3,2.432E3,2.812E3,7.42E2,1.69E3,1.876E3,9.36E2,7.4E1,6.68E2,1.621E3,6.9E1,9.35E2,9.41E2,8.71E2,6.5E1],"tree_param":{"num_deleted":"0","num_feature":"10","num_nodes":"15","size_leaf_vector":"1"}},{"base_weights":[1.9696535E-4,-1.3946534E-2,1.084351E-2,-3.1019293E-2,-9.059256E-3,5.9343665E-3,2.5208818E-2,-6.835119E-3,-2.8411548E-3,-1.5671815E-3,-4.5535315E-4,-2.8042453E-3,6.5987813E-4,2.3436274E-3,8.11425E-3],"categories":[],"categories_nodes":[],"categories_segments":[],"categories_sizes":[],"default_left":[0,0,0,0,0,0,0,0,0,0,0,0,0,0,0],"id":67,"left_children":[1,3,5,7,9,11,13,-1,-1,-1,-1,-1,-1,-1,-1],"loss_changes":[7.899401E-1,1.8770775E-1,2.1092081E-1,4.683143E-2,5.2158177E-2,5.05718E-2,7.364681E-2,0E0,0E0,0E0,0E0,0E0,0E0,0E0,0E0],"parents":[2147483647,0,0,1,1,2,2,3,3,4,4,5,5,6,6],"right_children":[2,4,6,8,10,12,14,-1,-1,-1,-1,-1,-1,-1,-1],"split_conditions":[4.1053277E-1,2.2980581E-1,6.0169107E-1,5.2779917E-2,3.4117442E-1,3.4698573E-1,8.5503465E-1,-6.835119E-3,-2.8411548E-3,-1.5671815E-3,-4.5535315E-4,-2.8042453E-3,6.5987813E-4,2.3436274E-3,8.11425E-3],"split_indices":[8,2,8,8,0,4,8,0,0,0,0,0,0,0,0],"split_type":[0,0,0,0,0,0,0,0,0,0,0,0,0,0,0],"sum_hessian":[5.244E3,2.252E3,2.992E3,5E2,1.752E3,2.231E3,7.61E2,3.1E1,4.69E2,7.09E2,1.043E3,4.2E1,2.189E3,7.39E2,2.2E1],"tree_param":{"num_deleted":"0","num_feature":"10","num_nodes":"15","size_leaf_vector":"1"}},{"base_weights":[1.6453382E-4,-2.0410538E-2,7.3081735E-3,-3.956175E-2,-1.6157418E-2,2.1655373E-3,2.2936553E-2,-4.0836725E-3,2.9804492E-3,-6.8096365E-3,-1.5237237E-3,-1.7721367E-4,9.828963E-4,2.0108533E-3,5.4363003E-3],"categories":[],"categories_nodes":[],"categories_segments":[],"categories_sizes":[],"default_left":[0,0,0,0,0,0,0,0,0,0,0,0,0,0,0],"id":68,"left_children":[1,3,5,7,9,11,13,-1,-1,-1,-1,-1,-1,-1,-1],"loss_changes":[7.710639E-1,1.09484494E-1,3.1291524E-1,2.2884965E-2,5.1917285E-2,8.8463485E-2,8.458203E-2,0E0,0E0,0E0,0E0,0E0,0E0,0E0,0E0],"parents":[2147483647,0,0,1,1,2,2,3,3,4,4,5,5,6,6],"right_children":[2,4,6,8,10,12,14,-1,-1,-1,-1,-1,-1,-1,-1],"split_conditions":[3.3779147E-1,1.671315E-1,5.763567E-1,2.9824877E-1,1.1611582E-1,4.9222553E-1,7.705868E-1,-4.0836725E-3,2.9804492E-3,-6.8096365E-3,-1.5237237E-3,-1.7721367E-4,9.828963E-4,2.0108533E-3,5.4363003E-3],"split_indices":[8,2,4,6,6,8,8,0,0,0,0,0,0,0,0],"split_type":[0,0,0,0,0,0,0,0,0,0,0,0,0,0,0],"sum_hessian":[5.244E3,1.351E3,3.893E3,2.44E2,1.107E3,2.93E3,9.63E2,2.4E2,4E0,1.8E1,1.089E3,1.936E3,9.94E2,8.85E2,7.8E1],"tree_param":{"num_deleted":"0","num_feature":"10","num_nodes":"15","size_leaf_vector":"1"}},{"base_weights":[-3.1240587E-4,-1.5041222E-2,8.508818E-3,-2.9819744E-2,-1.0084771E-2,3.4555485E-3,2.1146394E-2,-6.489956E-3,-2.7162062E-3,-1.5799381E-3,-6.5623387E-4,-1.3788713E-5,8.3482603E-4,1.7103743E-3,3.954934E-3],"categories":[],"categories_nodes":[],"categories_segments":[],"categories_sizes":[],"default_left":[0,0,0,0,0,0,0,0,0,0,0,0,0,0,0],"id":69,"left_children":[1,3,5,7,9,11,13,-1,-1,-1,-1,-1,-1,-1,-1],"loss_changes":[6.815908E-1,1.4363363E-1,2.0945513E-1,4.4200033E-2,2.9546827E-2,4.1230112E-2,6.9033265E-2,0E0,0E0,0E0,0E0,0E0,0E0,0E0,0E0],"parents":[2147483647,0,0,1,1,2,2,3,3,4,4,5,5,6,6],"right_children":[2,4,6,8,10,12,14,-1,-1,-1,-1,-1,-1,-1,-1],"split_conditions":[3.9036027E-1,2.1016963E-1,5.805791E-1,5.2779917E-2,3.2620507E-1,4.913177E-1,7.2836286E-1,-6.489956E-3,-2.7162062E-3,-1.5799381E-3,-6.5623387E-4,-1.3788713E-5,8.3482603E-4,1.7103743E-3,3.954934E-3],"split_indices":[8,8,8,8,0,8,8,0,0,0,0,0,0,0,0],"split_type":[0,0,0,0,0,0,0,0,0,0,0,0,0,0,0],"sum_hessian":[5.244E3,1.964E3,3.28E3,4.92E2,1.472E3,2.344E3,9.36E2,3.3E1,4.59E2,5.6E2,9.12E2,1.352E3,9.92E2,7.69E2,1.67E2],"tree_param":{"num_deleted":"0","num_feature":"10","num_nodes":"15","size_leaf_vector":"1"}},{"base_weights":[1.7661713E-4,-9.656324E-3,1.2790775E-2,-2.3266166E-2,-4.22201E-3,9.646595E-3,3.1512283E-2,-4.132455E-3,-1.9723948E-3,-1.1084211E-3,-2.0645201E-4,-1.0768181E-2,9.880405E-4,2.682597E-3,6.903868E-3],"categories":[],"categories_nodes":[],"categories_segments":[],"categories_sizes":[],"default_left":[0,0,0,0,0,0,0,0,0,0,0,0,0,0,0],"id":70,"left_children":[1,3,5,7,9,11,13,-1,-1,-1,-1,-1,-1,-1,-1],"loss_changes":[6.506832E-1,2.179363E-1,1.3496494E-1,5.298096E-2,3.1186331E-2,5.5078223E-2,5.6181937E-2,0E0,0E0,0E0,0E0,0E0,0E0,0E0,0E0],"parents":[2147483647,0,0,1,1,2,2,3,3,4,4,5,5,6,6],"right_children":[2,4,6,8,10,12,14,-1,-1,-1,-1,-1,-1,-1,-1],"split_conditions":[4.5696855E-1,2.7445558E-1,6.7506045E-1,1.1611582E-1,3.3779147E-1,2.4806562E-1,7.640264E-1,-4.132455E-3,-1.9723948E-3,-1.1084211E-3,-2.0645201E-4,-1.0768181E-2,9.880405E-4,2.682597E-3,6.903868E-3],"split_indices":[8,6,8,6,6,4,1,0,0,0,0,0,0,0,0],"split_type":[0,0,0,0,0,0,0,0,0,0,0,0,0,0,0],"sum_hessian":[5.244E3,2.947E3,2.297E3,8.4E2,2.107E3,1.968E3,3.29E2,1.36E2,7.04E2,5.03E2,1.604E3,3E0,1.965E3,2.94E2,3.5E1],"tree_param":{"num_deleted":"0","num_feature":"10","num_nodes":"15","size_leaf_vector":"1"}},{"base_weights":[1.4785049E-4,-1.6807057E-2,7.3104315E-3,-2.6177268E-2,-9.443899E-3,1.7962008E-3,1.9540256E-2,-4.428891E-3,-2.2368552E-3,-4.9060187E-3,-8.3633605E-4,-3.999137E-3,2.5649887E-4,1.7913644E-3,5.987239E-3],"categories":[],"categories_nodes":[],"categories_segments":[],"categories_sizes":[],"default_left":[0,0,0,0,0,0,0,0,0,0,0,0,0,0,0],"id":71,"left_children":[1,3,5,7,9,11,13,-1,-1,-1,-1,-1,-1,-1,-1],"loss_changes":[6.3708043E-1,1.0724598E-1,2.4867652E-1,4.6262085E-2,3.700293E-2,8.179842E-2,7.411054E-2,0E0,0E0,0E0,0E0,0E0,0E0,0E0,0E0],"parents":[2147483647,0,0,1,1,2,2,3,3,4,4,5,5,6,6],"right_children":[2,4,6,8,10,12,14,-1,-1,-1,-1,-1,-1,-1,-1],"split_conditions":[3.6575568E-1,2.5437808E-1,5.5625814E-1,9.500385E-2,2.0056368E-1,-8.561056E-1,8.1476605E-1,-4.428891E-3,-2.2368552E-3,-4.9060187E-3,-8.3633605E-4,-3.999137E-3,2.5649887E-4,1.7913644E-3,5.987239E-3],"split_indices":[0,6,8,8,4,1,2,0,0,0,0,0,0,0,0],"split_type":[0,0,0,0,0,0,0,0,0,0,0,0,0,0,0],"sum_hessian":[5.244E3,1.557E3,3.687E3,6.84E2,8.73E2,2.542E3,1.145E3,1.17E2,5.67E2,2.2E1,8.51E2,4.5E1,2.497E3,1.102E3,4.3E1],"tree_param":{"num_deleted":"0","num_feature":"10","num_nodes":"15","size_leaf_vector":"1"}},{"base_weights":[-2.821016E-4,-1.2560808E-2,8.373341E-3,-2.6856437E-2,-8.350726E-3,4.474002E-3,2.1510636E-2,-5.860049E-3,-2.4451755E-3,-1.3596582E-3,-4.5690243E-4,9.42273E-5,9.384753E-4,1.9882477E-3,6.8853893E-3],"categories":[],"categories_nodes":[],"categories_segments":[],"categories_sizes":[],"default_left":[0,0,0,0,0,0,0,0,0,0,0,0,0,0,0],"id":72,"left_children":[1,3,5,7,9,11,13,-1,-1,-1,-1,-1,-1,-1,-1],"loss_changes":[5.5753136E-1,1.3031864E-1,1.5752853E-1,3.6199927E-2,3.3206634E-2,4.1164488E-2,5.2897006E-2,0E0,0E0,0E0,0E0,0E0,0E0,0E0,0E0],"parents":[2147483647,0,0,1,1,2,2,3,3,4,4,5,5,6,6],"right_children":[2,4,6,8,10,12,14,-1,-1,-1,-1,-1,-1,-1,-1],"split_conditions":[4.008107E-1,2.1016963E-1,6.044778E-1,5.2779917E-2,3.3693838E-1,5.080384E-1,8.5503465E-1,-5.860049E-3,-2.4451755E-3,-1.3596582E-3,-4.5690243E-4,9.42273E-5,9.384753E-4,1.9882477E-3,6.8853893E-3],"split_indices":[6,8,8,8,0,8,8,0,0,0,0,0,0,0,0],"split_type":[0,0,0,0,0,0,0,0,0,0,0,0,0,0,0],"sum_hessian":[5.244E3,2.168E3,3.076E3,4.92E2,1.676E3,2.373E3,7.03E2,3.3E1,4.59E2,7.01E2,9.75E2,1.381E3,9.92E2,6.81E2,2.2E1],"tree_param":{"num_deleted":"0","num_feature":"10","num_nodes":"15","size_leaf_vector":"1"}},{"base_weights":[1.5749145E-4,-7.876464E-3,1.2864665E-2,-2.0757768E-2,-3.0488037E-3,1.0363279E-2,3.2610882E-2,-4.573054E-3,-1.8362402E-3,-7.399813E-4,5.3815278E-5,-3.562002E-3,1.1239729E-3,2.722462E-3,6.7252717E-3],"categories":[],"categories_nodes":[],"categories_segments":[],"categories_sizes":[],"default_left":[0,0,0,0,0,0,0,0,0,0,0,0,0,0,0],"id":73,"left_children":[1,3,5,7,9,11,13,-1,-1,-1,-1,-1,-1,-1,-1],"loss_changes":[5.3555745E-1,1.9980432E-1,1.00028425E-1,5.1561683E-2,3.650847E-2,7.314554E-2,4.0711567E-2,0E0,0E0,0E0,0E0,0E0,0E0,0E0,0E0],"parents":[2147483647,0,0,1,1,2,2,3,3,4,4,5,5,6,6],"right_children":[2,4,6,8,10,12,14,-1,-1,-1,-1,-1,-1,-1,-1],"split_conditions":[4.8029727E-1,2.8729904E-1,7.019043E-1,7.3891886E-2,3.8009986E-1,3.674804E-1,7.640264E-1,-4.573054E-3,-1.8362402E-3,-7.399813E-4,5.3815278E-5,-3.562002E-3,1.1239729E-3,2.722462E-3,6.7252717E-3],"split_indices":[8,2,8,8,8,2,1,0,0,0,0,0,0,0,0],"split_type":[0,0,0,0,0,0,0,0,0,0,0,0,0,0,0],"sum_hessian":[5.244E3,3.213E3,2.031E3,8.75E2,2.338E3,1.804E3,2.27E2,7.5E1,8E2,1.056E3,1.282E3,3.3E1,1.771E3,1.98E2,2.9E1],"tree_param":{"num_deleted":"0","num_feature":"10","num_nodes":"15","size_leaf_vector":"1"}},{"base_weights":[1.3146996E-4,-8.765697E-3,1.1465948E-2,-2.1396564E-2,-3.2689325E-3,8.373019E-3,2.6600674E-2,-2.2704417E-3,3.3867029E-3,-3.8021663E-4,6.929104E-3,-7.0742676E-3,8.8249857E-4,2.2292132E-3,5.9233196E-3],"categories":[],"categories_nodes":[],"categories_segments":[],"categories_sizes":[],"default_left":[0,0,0,0,0,0,0,0,0,0,0,0,0,0,0],"id":74,"left_children":[1,3,5,7,9,11,13,-1,-1,-1,-1,-1,-1,-1,-1],"loss_changes":[5.290311E-1,2.0398161E-1,1.0776937E-1,6.516737E-2,7.95422E-2,6.917168E-2,5.3653628E-2,0E0,0E0,0E0,0E0,0E0,0E0,0E0,0E0],"parents":[2147483647,0,0,1,1,2,2,3,3,4,4,5,5,6,6],"right_children":[2,4,6,8,10,12,14,-1,-1,-1,-1,-1,-1,-1,-1],"split_conditions":[4.5696855E-1,2.9331616E-1,6.5992314E-1,4.0023816E-1,6.0108846E-1,3.706417E-1,6.993399E-1,-2.2704417E-3,3.3867029E-3,-3.8021663E-4,6.929104E-3,-7.0742676E-3,8.8249857E-4,2.2292132E-3,5.9233196E-3],"split_indices":[6,0,8,2,2,4,1,0,0,0,0,0,0,0,0],"split_type":[0,0,0,0,0,0,0,0,0,0,0,0,0,0,0],"sum_hessian":[5.244E3,2.938E3,2.306E3,8.9E2,2.048E3,1.916E3,3.9E2,8.7E2,2E1,2.034E3,1.4E1,1E1,1.906E3,3.46E2,4.4E1],"tree_param":{"num_deleted":"0","num_feature":"10","num_nodes":"15","size_leaf_vector":"1"}},{"base_weights":[-2.539316E-4,-8.530107E-3,1.021647E-2,-1.9238375E-2,-3.5568255E-3,7.613775E-3,2.6368378E-2,-4.2424947E-3,-1.7152407E-3,-4.3983106E-4,1.1097572E-3,4.4782026E-4,1.1905903E-3,1.9975256E-3,4.671496E-3],"categories":[],"categories_nodes":[],"categories_segments":[],"categories_sizes":[],"default_left":[0,0,0,0,0,0,0,0,0,0,0,0,0,0,0],"id":75,"left_children":[1,3,5,7,9,11,13,-1,-1,-1,-1,-1,-1,-1,-1],"loss_changes":[4.5459202E-1,1.5596944E-1,9.71604E-2,4.420474E-2,2.4736382E-2,2.680941E-2,4.082197E-2,0E0,0E0,0E0,0E0,0E0,0E0,0E0,0E0],"parents":[2147483647,0,0,1,1,2,2,3,3,4,4,5,5,6,6],"right_children":[2,4,6,8,10,12,14,-1,-1,-1,-1,-1,-1,-1,-1],"split_conditions":[4.5564905E-1,3.0276364E-1,6.861389E-1,7.3891886E-2,4.844141E-1,5.536717E-1,7.5716496E-1,-4.2424947E-3,-1.7152407E-3,-4.3983106E-4,1.1097572E-3,4.4782026E-4,1.1905903E-3,1.9975256E-3,4.671496E-3],"split_indices":[8,0,8,8,6,0,0,0,0,0,0,0,0,0,0],"split_type":[0,0,0,0,0,0,0,0,0,0,0,0,0,0,0],"sum_hessian":[5.244E3,2.929E3,2.315E3,9.28E2,2.001E3,1.995E3,3.2E2,7.5E1,8.53E2,1.893E3,1.08E2,1.154E3,8.41E2,2.45E2,7.5E1],"tree_param":{"num_deleted":"0","num_feature":"10","num_nodes":"15","size_leaf_vector":"1"}},{"base_weights":[1.4172957E-4,-6.7755906E-3,1.2163929E-2,-1.8152794E-2,-2.193114E-3,9.831192E-3,2.939125E-2,-2.5972163E-3,-1.1574297E-3,-2.6378492E-4,1.8124579E-3,-3.7815224E-3,1.0627984E-3,2.4515858E-3,6.075164E-3],"categories":[],"categories_nodes":[],"categories_segments":[],"categories_sizes":[],"default_left":[0,0,0,0,0,0,0,0,0,0,0,0,0,0,0],"id":76,"left_children":[1,3,5,7,9,11,13,-1,-1,-1,-1,-1,-1,-1,-1],"loss_changes":[4.3626398E-1,1.735723E-1,7.670894E-2,4.887572E-2,2.150829E-2,6.452358E-2,3.3370495E-2,0E0,0E0,0E0,0E0,0E0,0E0,0E0,0E0],"parents":[2147483647,0,0,1,1,2,2,3,3,4,4,5,5,6,6],"right_children":[2,4,6,8,10,12,14,-1,-1,-1,-1,-1,-1,-1,-1],"split_conditions":[4.9222553E-1,2.917674E-1,7.019043E-1,2.260035E-1,5.6761634E-1,3.674804E-1,7.640264E-1,-2.5972163E-3,-1.1574297E-3,-2.6378492E-4,1.8124579E-3,-3.7815224E-3,1.0627984E-3,2.4515858E-3,6.075164E-3],"split_indices":[8,8,8,0,4,2,1,0,0,0,0,0,0,0,0],"split_type":[0,0,0,0,0,0,0,0,0,0,0,0,0,0,0],"sum_hessian":[5.244E3,3.329E3,1.915E3,9.55E2,2.374E3,1.688E3,2.27E2,4.35E2,5.2E2,2.324E3,5E1,2.7E1,1.661E3,1.98E2,2.9E1],"tree_param":{"num_deleted":"0","num_feature":"10","num_nodes":"15","size_leaf_vector":"1"}},{"base_weights":[1.2015527E-4,-1.1714956E-2,7.2081992E-3,-2.3830356E-2,-7.6520857E-3,2.3395934E-3,1.6715432E-2,-2.1105832E-3,-5.2584046E-3,-4.1986634E-3,-6.590287E-4,-8.341972E-3,2.6953465E-4,1.5312246E-3,5.0394717E-3],"categories":[],"categories_nodes":[],"categories_segments":[],"categories_sizes":[],"default_left":[0,0,0,0,0,0,0,0,0,0,0,0,0,0,0],"id":77,"left_children":[1,3,5,7,9,11,13,-1,-1,-1,-1,-1,-1,-1,-1],"loss_changes":[4.4007587E-1,9.6541435E-2,1.5182847E-1,3.7511885E-2,5.342353E-2,6.646021E-2,5.173233E-2,0E0,0E0,0E0,0E0,0E0,0E0,0E0,0E0],"parents":[2147483647,0,0,1,1,2,2,3,3,4,4,5,5,6,6],"right_children":[2,4,6,8,10,12,14,-1,-1,-1,-1,-1,-1,-1,-1],"split_conditions":[3.9036027E-1,2.1016963E-1,5.6969905E-1,8.128713E-1,1.8417525E-1,1.9846866E-1,8.128107E-1,-2.1105832E-3,-5.2584046E-3,-4.1986634E-3,-6.590287E-4,-8.341972E-3,2.6953465E-4,1.5312246E-3,5.0394717E-3],"split_indices":[8,8,0,1,0,2,4,0,0,0,0,0,0,0,0],"split_type":[0,0,0,0,0,0,0,0,0,0,0,0,0,0,0],"sum_hessian":[5.244E3,1.964E3,3.28E3,4.92E2,1.472E3,2.17E3,1.11E3,4.51E2,4.1E1,4.3E1,1.429E3,8E0,2.162E3,1.067E3,4.3E1],"tree_param":{"num_deleted":"0","num_feature":"10","num_nodes":"15","size_leaf_vector":"1"}},{"base_weights":[-2.279652E-4,-1.40585145E-2,4.9798717E-3,-2.329093E-2,-9.1116475E-3,8.9895306E-4,1.4190817E-2,-4.894075E-3,-2.1491176E-3,3.870635E-3,-9.255484E-4,-1.6629495E-4,4.323089E-4,1.2190967E-3,3.5942332E-3],"categories":[],"categories_nodes":[],"categories_segments":[],"categories_sizes":[],"default_left":[0,0,0,0,0,0,0,0,0,0,0,0,0,0,0],"id":78,"left_children":[1,3,5,7,9,11,13,-1,-1,-1,-1,-1,-1,-1,-1],"loss_changes":[3.778529E-1,6.532645E-2,1.4323938E-1,2.2029877E-2,6.7959875E-3,2.3183614E-2,5.045654E-2,0E0,0E0,0E0,0E0,0E0,0E0,0E0,0E0],"parents":[2147483647,0,0,1,1,2,2,3,3,4,4,5,5,6,6],"right_children":[2,4,6,8,10,12,14,-1,-1,-1,-1,-1,-1,-1,-1],"split_conditions":[3.448288E-1,2.4556701E-1,5.5625814E-1,5.2779917E-2,5.2779917E-2,4.671952E-1,7.5716496E-1,-4.894075E-3,-2.1491176E-3,3.870635E-3,-9.255484E-4,-1.6629495E-4,4.323089E-4,1.2190967E-3,3.5942332E-3],"split_indices":[8,0,8,8,6,2,0,0,0,0,0,0,0,0,0],"split_type":[0,0,0,0,0,0,0,0,0,0,0,0,0,0,0],"sum_hessian":[5.244E3,1.434E3,3.81E3,4.99E2,9.35E2,2.641E3,1.169E3,3.1E1,4.68E2,2E0,9.33E2,1.511E3,1.13E3,1.072E3,9.7E1],"tree_param":{"num_deleted":"0","num_feature":"10","num_nodes":"15","size_leaf_vector":"1"}},{"base_weights":[1.2823712E-4,-1.4081068E-2,5.012653E-3,-2.7140975E-2,-1.1183214E-2,1.5186625E-5,1.3601602E-2,-3.0965602E-3,-4.2892122E-4,-1.0907666E-3,-1.0830637E-2,-2.679386E-3,5.1266776E-5,5.818186E-4,1.8341917E-3],"categories":[],"categories_nodes":[],"categories_segments":[],"categories_sizes":[],"default_left":[0,0,0,0,0,0,0,0,0,0,0,0,0,0,0],"id":79,"left_children":[1,3,5,7,9,11,13,-1,-1,-1,-1,-1,-1,-1,-1],"loss_changes":[3.640954E-1,5.0485402E-2,1.6757111E-1,2.110526E-2,2.8257027E-2,3.2942776E-2,5.2875698E-2,0E0,0E0,0E0,0E0,0E0,0E0,0E0,0E0],"parents":[2147483647,0,0,1,1,2,2,3,3,4,4,5,5,6,6],"right_children":[2,4,6,8,10,12,14,-1,-1,-1,-1,-1,-1,-1,-1],"split_conditions":[3.3779147E-1,1.5833975E-1,5.283903E-1,2.3556697E-1,4.9988917E-1,-8.561056E-1,5.6969905E-1,-3.0965602E-3,-4.2892122E-4,-1.0907666E-3,-1.0830637E-2,-2.679386E-3,5.1266776E-5,5.818186E-4,1.8341917E-3],"split_indices":[4,8,8,0,8,1,0,0,0,0,0,0,0,0,0],"split_type":[0,0,0,0,0,0,0,0,0,0,0,0,0,0,0],"sum_hessian":[5.244E3,1.341E3,3.903E3,2.42E2,1.099E3,2.468E3,1.435E3,2.07E2,3.5E1,1.097E3,2E0,4.4E1,2.424E3,5.44E2,8.91E2],"tree_param":{"num_deleted":"0","num_feature":"10","num_nodes":"15","size_leaf_vector":"1"}},{"base_weights":[1.055175E-4,-6.524553E-3,1.0592202E-2,-1.7828416E-2,-2.6452735E-3,4.4511543E-3,1.6838599E-2,-4.3536904E-3,-1.5523386E-3,-3.1761266E-4,2.3931074E-3,5.1956053E-4,-1.0466184E-2,-5.2426583E-3,1.7445754E-3],"categories":[],"categories_nodes":[],"categories_segments":[],"categories_sizes":[],"default_left":[0,0,0,0,0,0,0,0,0,0,0,0,0,0,0],"id":80,"left_children":[1,3,5,7,9,11,13,-1,-1,-1,-1,-1,-1,-1,-1],"loss_changes":[3.6474064E-1,1.4088945E-1,7.787135E-2,4.797563E-2,3.3850882E-2,8.3884984E-2,4.3263733E-2,0E0,0E0,0E0,0E0,0E0,0E0,0E0,0E0],"parents":[2147483647,0,0,1,1,2,2,3,3,4,4,5,5,6,6],"right_children":[2,4,6,8,10,12,14,-1,-1,-1,-1,-1,-1,-1,-1],"split_conditions":[4.8029727E-1,2.709369E-1,5.6969905E-1,-8.4620464E-1,5.6761634E-1,9.247525E-1,-9.359736E-1,-4.3536904E-3,-1.5523386E-3,-3.1761266E-4,2.3931074E-3,5.1956053E-4,-1.0466184E-2,-5.2426583E-3,1.7445754E-3],"split_indices":[8,8,0,1,4,1,1,0,0,0,0,0,0,0,0],"split_type":[0,0,0,0,0,0,0,0,0,0,0,0,0,0,0],"sum_hessian":[5.244E3,3.213E3,2.031E3,8.2E2,2.393E3,1.025E3,1.006E3,6.6E1,7.54E2,2.347E3,4.6E1,1.019E3,6E0,8E0,9.98E2],"tree_param":{"num_deleted":"0","num_feature":"10","num_nodes":"15","size_leaf_vector":"1"}},{"base_weights":[-2.0498203E-4,-1.3322806E-2,4.3043224E-3,-2.4335338E-2,-1.0032775E-2,-6.560148E-5,1.166772E-2,-4.281731E-3,-2.2334221E-3,-3.611289E-3,-9.45704E-4,-5.0637685E-4,1.4900128E-4,9.530689E-4,2.7969456E-3],"categories":[],"categories_nodes":[],"categories_segments":[],"categories_sizes":[],"default_left":[0,0,0,0,0,0,0,0,0,0,0,0,0,0,0],"id":81,"left_children":[1,3,5,7,9,11,13,-1,-1,-1,-1,-1,-1,-1,-1],"loss_changes":[3.10311E-1,4.8378617E-2,1.2562166E-1,1.0434955E-2,1.5199244E-2,1.9064609E-2,5.038689E-2,0E0,0E0,0E0,0E0,0E0,0E0,0E0,0E0],"parents":[2147483647,0,0,1,1,2,2,3,3,4,4,5,5,6,6],"right_children":[2,4,6,8,10,12,14,-1,-1,-1,-1,-1,-1,-1,-1],"split_conditions":[3.3779147E-1,1.9794747E-1,5.2759653E-1,-8.5049504E-1,1.1611582E-1,3.7649676E-1,7.2836286E-1,-4.281731E-3,-2.2334221E-3,-3.611289E-3,-9.45704E-4,-5.0637685E-4,1.4900128E-4,9.530689E-4,2.7969456E-3],"split_indices":[4,0,8,1,8,8,8,0,0,0,0,0,0,0,0],"split_type":[0,0,0,0,0,0,0,0,0,0,0,0,0,0,0],"sum_hessian":[5.244E3,1.341E3,3.903E3,3.07E2,1.034E3,2.45E3,1.453E3,2.8E1,2.79E2,2.1E1,1.013E3,5.81E2,1.869E3,1.286E3,1.67E2],"tree_param":{"num_deleted":"0","num_feature":"10","num_nodes":"15","size_leaf_vector":"1"}},{"base_weights":[1.124288E-4,-1.121292E-2,5.1994193E-3,-2.366853E-2,-8.570623E-3,1.7201945E-3,1.4783548E-2,-4.7324677E-3,-2.0999112E-3,-9.0201694E-4,3.811537E-3,-1.0571713E-3,2.746742E-4,1.3013416E-3,3.9892704E-3],"categories":[],"categories_nodes":[],"categories_segments":[],"categories_sizes":[],"default_left":[0,0,0,0,0,0,0,0,0,0,0,0,0,0,0],"id":82,"left_children":[1,3,5,7,9,11,13,-1,-1,-1,-1,-1,-1,-1,-1],"loss_changes":[3.0223292E-1,5.331114E-2,1.2068469E-1,1.694031E-2,2.8530098E-2,3.355566E-2,4.232733E-2,0E0,0E0,0E0,0E0,0E0,0E0,0E0,0E0],"parents":[2147483647,0,0,1,1,2,2,3,3,4,4,5,5,6,6],"right_children":[2,4,6,8,10,12,14,-1,-1,-1,-1,-1,-1,-1,-1],"split_conditions":[3.5890344E-1,1.7130978E-1,5.763567E-1,-8.5049504E-1,9.2112213E-1,3.3693838E-1,7.770682E-1,-4.7324677E-3,-2.0999112E-3,-9.0201694E-4,3.811537E-3,-1.0571713E-3,2.746742E-4,1.3013416E-3,3.9892704E-3],"split_indices":[8,2,4,1,3,0,6,0,0,0,0,0,0,0,0],"split_type":[0,0,0,0,0,0,0,0,0,0,0,0,0,0,0],"sum_hessian":[5.244E3,1.625E3,3.619E3,2.83E2,1.342E3,2.656E3,9.63E2,2.7E1,2.56E2,1.33E3,1.2E1,2.04E2,2.452E3,9.01E2,6.2E1],"tree_param":{"num_deleted":"0","num_feature":"10","num_nodes":"15","size_leaf_vector":"1"}},{"base_weights":[9.1667316E-5,-1.22873E-2,4.7573117E-3,-3.3079013E-2,-1.0417922E-2,1.4326394E-3,1.4557581E-2,-1.4695717E-3,-4.381103E-3,-9.7404525E-4,-6.498061E-3,-3.415731E-3,2.0295304E-4,9.83923E-4,2.5240486E-3],"categories":[],"categories_nodes":[],"categories_segments":[],"categories_sizes":[],"default_left":[0,0,0,0,0,0,0,0,0,0,0,0,0,0,0],"id":83,"left_children":[1,3,5,7,9,11,13,-1,-1,-1,-1,-1,-1,-1,-1],